/*
 * Copyright (c) 2025 EdgeImpulse Inc.
 *
 * Generated by Edge Impulse and licensed under the applicable Edge Impulse
 * Terms of Service. Community and Professional Terms of Service
 * (https://edgeimpulse.com/legal/terms-of-service) or Enterprise Terms of
 * Service (https://edgeimpulse.com/legal/enterprise-terms-of-service),
 * according to your product plan subscription (the “License”).
 *
 * This software, documentation and other associated files (collectively referred
 * to as the “Software”) is a single SDK variation generated by the Edge Impulse
 * platform and requires an active paid Edge Impulse subscription to use this
 * Software for any purpose.
 *
 * You may NOT use this Software unless you have an active Edge Impulse subscription
 * that meets the eligibility requirements for the applicable License, subject to
 * your full and continued compliance with the terms and conditions of the License,
 * including without limitation any usage restrictions under the applicable License.
 *
 * If you do not have an active Edge Impulse product plan subscription, or if use
 * of this Software exceeds the usage limitations of your Edge Impulse product plan
 * subscription, you are not permitted to use this Software and must immediately
 * delete and erase all copies of this Software within your control or possession.
 * Edge Impulse reserves all rights and remedies available to enforce its rights.
 *
 * Unless required by applicable law or agreed to in writing, the Software is
 * distributed on an "AS IS" BASIS, WITHOUT WARRANTIES OR CONDITIONS OF ANY KIND,
 * either express or implied. See the License for the specific language governing
 * permissions, disclaimers and limitations under the License.
 */
// Generated on: 04.12.2025 01:48:13

#include <stdio.h>
#include <stdlib.h>
#include "edge-impulse-sdk/tensorflow/lite/c/builtin_op_data.h"
#include "edge-impulse-sdk/tensorflow/lite/c/common.h"
#include "edge-impulse-sdk/tensorflow/lite/micro/micro_mutable_op_resolver.h"
#include "edge-impulse-sdk/porting/ei_classifier_porting.h"

#if EI_CLASSIFIER_PRINT_STATE
#if defined(__cplusplus) && EI_C_LINKAGE == 1
extern "C" {
    extern void ei_printf(const char *format, ...);
}
#else
extern void ei_printf(const char *format, ...);
#endif
#endif

#define STRINGIZE(x) #x
#define STRINGIZE_VALUE_OF(x) STRINGIZE(x)

#if defined (__GNUC__)  /* GNU compiler */
#define ALIGN(X) __attribute__((aligned(X)))
#define DEFINE_SECTION(x) __attribute__((section(x)))
#elif defined (_MSC_VER)
#define ALIGN(X) __declspec(align(X))
#elif defined (__TASKING__) /* TASKING Compiler */
#define ALIGN(X) __align(X)
#define DEFINE_SECTION(x) __attribute__((section(x)))
#elif defined (__ARMCC_VERSION) /* Arm Compiler */
#define ALIGN(X) __ALIGNED(x)
#define DEFINE_SECTION(x) __attribute__((section(x)))
#elif defined (__ICCARM__) /* IAR Compiler */
#define ALIGN(x) __attribute__((aligned(x)))
#define DEFINE_SECTION(x) __attribute__((section(x)))
#elif defined (__clang__) /* LLVM/Clang Compiler */
#define ALIGN(X) __ALIGNED(x)
#define DEFINE_SECTION(x) __attribute__((section(x)))
#endif

#if defined(EI_MODEL_SECTION) && (defined(__GNUC__) || defined(__clang__))
#define MODEL_SECTION(X) __attribute__((section(STRINGIZE_VALUE_OF(X))))
#else
#define MODEL_SECTION(X)
#endif

#ifndef EI_MAX_SCRATCH_BUFFER_COUNT
#ifndef CONFIG_IDF_TARGET_ESP32S3
#define EI_MAX_SCRATCH_BUFFER_COUNT 14
#else
#define EI_MAX_SCRATCH_BUFFER_COUNT 28
#endif // CONFIG_IDF_TARGET_ESP32S3
#endif // EI_MAX_SCRATCH_BUFFER_COUNT

#ifndef EI_MAX_OVERFLOW_BUFFER_COUNT
#define EI_MAX_OVERFLOW_BUFFER_COUNT 10
#endif // EI_MAX_OVERFLOW_BUFFER_COUNT

using namespace tflite;
using namespace tflite::ops;
using namespace tflite::ops::micro;

namespace {

#if defined(EI_CLASSIFIER_ALLOCATION_STATIC_HIMAX) || defined(EI_CLASSIFIER_ALLOCATION_STATIC_HIMAX_GNU)
constexpr int kTensorArenaSize = 634832;
#else
constexpr int kTensorArenaSize = 633808;
#endif

#if defined(EI_CLASSIFIER_ALLOCATION_STATIC)
#if defined (EI_TENSOR_ARENA_LOCATION)
uint8_t tensor_arena[kTensorArenaSize] ALIGN(16) DEFINE_SECTION(STRINGIZE_VALUE_OF(EI_TENSOR_ARENA_LOCATION));
#else
uint8_t tensor_arena[kTensorArenaSize] ALIGN(16);
#endif
#elif defined(EI_CLASSIFIER_ALLOCATION_STATIC_HIMAX)
#pragma Bss(".tensor_arena")
uint8_t tensor_arena[kTensorArenaSize] ALIGN(16);
#pragma Bss()
#elif defined(EI_CLASSIFIER_ALLOCATION_STATIC_HIMAX_GNU)
uint8_t tensor_arena[kTensorArenaSize] ALIGN(16) __attribute__((section(".tensor_arena")));
#else
#define EI_CLASSIFIER_ALLOCATION_HEAP 1
uint8_t* tensor_arena = NULL;
#endif

static uint8_t* tensor_boundary;
static uint8_t* current_location;

template <int SZ, class T> struct TfArray {
  int sz; T elem[SZ];
};

enum used_operators_e {
  OP_CONV_2D, OP_DEPTHWISE_CONV_2D, OP_ADD, OP_PAD, OP_SOFTMAX,  OP_LAST
};

struct TensorInfo_t { // subset of TfLiteTensor used for initialization from constant memory
  TfLiteAllocationType allocation_type;
  TfLiteType type;
  void* data;
  TfLiteIntArray* dims;
  size_t bytes;
  TfLiteQuantization quantization;
};

typedef struct {
  TfLiteTensor tensor;
  int16_t index;
} TfLiteTensorWithIndex;

typedef struct {
  TfLiteEvalTensor tensor;
  int16_t index;
} TfLiteEvalTensorWithIndex;

TfLiteContext ctx{};
static const int MAX_TFL_TENSOR_COUNT = 4;
static TfLiteTensorWithIndex tflTensors[MAX_TFL_TENSOR_COUNT];
static const int MAX_TFL_EVAL_COUNT = 4;
static TfLiteEvalTensorWithIndex tflEvalTensors[MAX_TFL_EVAL_COUNT];
TfLiteRegistration registrations[OP_LAST];

namespace g0 {
const TfArray<4, int> tensor_dimension0 = { 4, { 1,160,160,1 } };
const TfArray<1, float> quant0_scale = { 1, { 0.0039215688593685627, } };
const TfArray<1, int> quant0_zero = { 1, { -128 } };
const TfLiteAffineQuantization quant0 = { (TfLiteFloatArray*)&quant0_scale, (TfLiteIntArray*)&quant0_zero, 0 };
const MODEL_SECTION(EI_MODEL_SECTION) ALIGN(16) int32_t tensor_data1[4*2] = { 
  0, 0, 
  0, 1, 
  0, 1, 
  0, 0, 
};
const TfArray<2, int> tensor_dimension1 = { 2, { 4,2 } };
const MODEL_SECTION(EI_MODEL_SECTION) ALIGN(8) int32_t tensor_data2[3] = { 22947, -45601, -32698, };
const TfArray<1, int> tensor_dimension2 = { 1, { 3 } };
const TfArray<3, float> quant2_scale = { 3, { 0.00028179207583889365, 0.00014310622646007687, 0.00020198117999825627, } };
const TfArray<3, int> quant2_zero = { 3, { 0,0,0 } };
const TfLiteAffineQuantization quant2 = { (TfLiteFloatArray*)&quant2_scale, (TfLiteIntArray*)&quant2_zero, 0 };
const MODEL_SECTION(EI_MODEL_SECTION) ALIGN(16) int8_t tensor_data3[3*1*1*32] = { 
  /* [0][0][][] */ 25,9,50,-21,-27,81,8,15,-35,-50,-25,11,86,-34,61,-49,-6,77,55,48,-58,-7,2,-83,-51,71,-14,-87,22,127,-28,-20, 
  /* [1][0][][] */ -8,-23,-54,37,3,120,-20,7,108,-48,5,-72,-119,99,31,-35,87,-47,-55,-85,-96,28,45,64,24,4,-1,2,-127,-117,76,-72, 
  /* [2][0][][] */ -75,55,-42,52,58,-21,-25,73,62,49,85,-5,-88,-43,49,79,-43,-51,-51,-65,65,71,-111,-33,70,-34,-10,-118,4,-127,-72,-19, 
};
const TfArray<4, int> tensor_dimension3 = { 4, { 3,1,1,32 } };
const TfArray<3, float> quant3_scale = { 3, { 0.007852114737033844, 0.0039876438677310944, 0.0056281900033354759, } };
const TfLiteAffineQuantization quant3 = { (TfLiteFloatArray*)&quant3_scale, (TfLiteIntArray*)&g0::quant2_zero, 0 };
const MODEL_SECTION(EI_MODEL_SECTION) ALIGN(16) int32_t tensor_data4[32] = { -615, 205, -725, 283, 248, 860, -319, 369, 448, 290, 365, -487, 1164, 479, 572, 68, 345, 460, 1655, -123, -177, 413, -808, -244, 125, 824, -526, 1518, 1896, 2120, 500, 826, };
const TfArray<1, int> tensor_dimension4 = { 1, { 32 } };
const TfArray<32, float> quant4_scale = { 32, { 7.9643294156994671e-05, 7.1231988840736449e-05, 5.5321306717814878e-05, 8.2450620539020747e-05, 6.807152385590598e-05, 6.4379928517155349e-05, 7.0005022280383855e-05, 6.6441403760109097e-05, 7.8918121289461851e-05, 6.2292463553603739e-05, 6.6666980274021626e-05, 7.0088048232719302e-05, 0.00010018786997534335, 5.850548404850997e-05, 6.733895861543715e-05, 6.5381296735722572e-05, 8.3719438407570124e-05, 6.3731618865858763e-05, 0.00010383509652456269, 5.9105375839862972e-05, 8.847425488056615e-05, 5.6411634432151914e-05, 0.0001054914464475587, 6.412678339984268e-05, 9.6512761956546456e-05, 8.7308559159282595e-05, 5.4213382099987939e-05, 8.3228078437969089e-05, 7.5642943556886166e-05, 9.706881974125281e-05, 0.00015473351231776178, 7.157350773923099e-05, } };
const TfArray<32, int> quant4_zero = { 32, { 0,0,0,0,0,0,0,0,0,0,0,0,0,0,0,0,0,0,0,0,0,0,0,0,0,0,0,0,0,0,0,0 } };
const TfLiteAffineQuantization quant4 = { (TfLiteFloatArray*)&quant4_scale, (TfLiteIntArray*)&quant4_zero, 0 };
const MODEL_SECTION(EI_MODEL_SECTION) ALIGN(16) int8_t tensor_data5[32*1*1*48] = { 
  /* [0][0][][] */ -55,-47,34,6,36,-13,-45,-79,11,-46,-70,-9,69,-6,-45,59,127,-16,-69,-74,-22,-93,-19,53,-111,1,59,-44,111,25,-64,-107,-2,-20,-48,62,-80,-53,-9,52,44,-103,-103,36,11,-43,59,13, 
  /* [1][0][][] */ -29,45,-47,15,-28,78,35,5,12,-127,-105,95,72,-31,-6,53,125,-19,13,97,-29,-1,34,26,33,21,-39,75,23,10,66,-54,103,97,12,37,42,45,-6,-60,-39,13,-44,-117,-27,27,9,-29, 
  /* [2][0][][] */ 8,9,-83,73,-38,-96,69,73,-127,63,-46,95,66,-35,60,-120,-73,-48,7,28,-114,-31,94,-2,-52,61,119,-29,-85,51,76,73,-56,-36,-112,-119,-104,79,93,-31,-120,-95,-3,25,-104,94,-20,-87, 
  /* [3][0][][] */ 71,30,43,4,-28,58,-50,36,39,0,73,13,85,68,49,19,127,75,-28,29,92,-52,-40,-57,0,-52,-72,87,54,-45,55,15,3,-4,6,0,-55,-2,32,45,6,-29,-72,-53,78,27,8,-55, 
  /* [4][0][][] */ 59,116,16,63,-4,7,44,17,28,38,2,58,52,-30,-20,-36,40,8,-56,29,99,-66,72,38,4,21,30,-33,-13,45,-59,-37,103,113,33,-67,-32,6,-84,46,-14,-21,-77,-127,44,90,71,51, 
  /* [5][0][][] */ 105,-82,84,81,49,-84,49,74,127,-83,66,-55,20,106,63,32,70,67,-16,101,52,58,28,-8,-83,-42,-51,-63,54,53,33,-57,-111,12,-52,27,-85,-4,41,41,-60,-31,60,45,17,40,40,-68, 
  /* [6][0][][] */ 29,-14,94,63,-78,-53,-7,29,-41,-52,46,-92,35,46,84,-95,81,-17,7,73,-78,-98,85,35,-58,-92,-6,-34,-43,-127,48,-74,-67,-86,-58,-70,-12,46,-110,55,57,28,21,8,-54,61,-58,-60, 
  /* [7][0][][] */ 114,78,-17,-15,-48,118,2,7,65,-42,-78,28,69,-71,24,68,96,28,-7,109,59,35,3,84,-44,101,15,56,-42,104,-19,33,69,42,74,99,-81,77,-5,-17,96,-46,55,-1,56,7,127,-87, 
  /* [8][0][][] */ 34,46,-14,-47,56,38,-28,0,27,27,81,70,17,-20,-46,-40,15,75,-22,29,39,-11,61,91,-70,80,-2,68,-28,37,-58,95,79,-7,43,9,85,21,-9,65,73,94,-71,-127,33,-8,20,65, 
  /* [9][0][][] */ -25,-9,68,55,48,-101,-83,-71,32,49,-49,34,-22,-88,-110,-57,61,19,-127,-61,19,83,-77,-118,87,-55,-20,-11,-10,-61,-111,87,104,14,39,0,-92,-31,-14,-109,-6,-74,53,-83,42,1,-96,72, 
  /* [10][0][][] */ -30,99,91,-35,4,111,106,29,11,-8,28,-36,108,67,-38,22,31,80,-84,-34,-2,31,52,-41,44,66,-110,-79,-17,82,-78,-61,127,103,117,74,-25,14,-23,35,-5,118,-108,-80,-60,-40,42,-41, 
  /* [11][0][][] */ 104,-12,-19,71,70,31,30,2,75,62,-66,49,-25,-78,9,-58,-79,-96,48,21,16,34,9,-93,-99,-110,-40,31,37,-19,-15,-24,-77,-64,22,50,-81,48,-31,-81,-47,58,-58,-28,-36,-86,-127,-91, 
  /* [12][0][][] */ 12,33,-28,5,44,-17,-37,24,-94,7,-2,37,-11,7,40,-43,-54,12,-21,-50,20,25,48,40,-72,-35,127,-96,45,-4,25,70,-47,-41,-6,38,27,-27,14,11,74,-15,-27,21,-17,-34,-33,121, 
  /* [13][0][][] */ 113,-52,112,92,107,113,98,82,127,-56,84,-28,79,90,103,-30,-105,-65,-24,43,77,-17,111,-28,-53,50,-39,35,-72,-62,90,60,-57,94,-24,24,-68,1,16,89,-46,93,-21,-20,2,42,-7,-65, 
  /* [14][0][][] */ -29,-72,90,86,85,16,16,-50,-61,-49,80,75,-5,-47,-71,-62,-7,-26,22,55,-2,34,9,90,-84,-40,-60,41,-60,-61,-87,57,127,15,0,18,79,97,20,-76,2,-46,9,2,68,-74,56,-84, 
  /* [15][0][][] */ 30,12,-12,81,85,-51,60,-84,7,-41,-84,26,118,-10,-97,-79,127,20,-92,32,48,20,64,103,81,72,22,77,38,55,40,-85,69,27,-29,9,-51,95,99,-63,28,113,-71,-69,21,-68,-2,-51, 
  /* [16][0][][] */ -38,-4,77,-40,40,76,-19,43,72,59,-20,45,-14,-14,-4,-31,67,52,75,54,82,58,-23,44,-19,44,-63,53,-60,24,38,26,-127,47,33,33,-15,54,-35,-27,23,-19,71,43,69,79,62,-30, 
  /* [17][0][][] */ 62,-127,33,50,-48,-102,-77,-77,-2,-98,26,42,77,60,-77,16,17,58,104,106,-88,0,30,-44,6,44,-67,14,65,-59,-83,79,-52,-57,29,4,-33,78,-117,-78,-104,-61,15,41,-27,2,-28,-118, 
  /* [18][0][][] */ -64,44,66,-12,-12,-86,-65,19,-36,20,-58,-12,-10,21,38,2,-38,8,30,-18,57,11,70,-50,-36,-63,127,32,6,-5,41,25,86,-5,-38,4,6,46,25,43,5,-41,31,79,-83,21,4,67, 
  /* [19][0][][] */ 12,32,70,32,56,-99,87,72,84,-64,59,-8,-86,26,-46,53,63,-103,98,45,-31,77,-48,1,56,-59,65,-45,-89,-127,-48,36,89,-79,21,5,15,-50,-45,-94,58,-120,-70,51,-70,23,45,-75, 
  /* [20][0][][] */ 11,55,45,69,-63,69,12,24,-3,2,-63,-6,8,41,1,-40,-18,-20,-44,-21,17,-39,-45,-41,53,-55,-66,28,11,8,-44,59,127,41,-3,60,10,-22,7,-84,-70,-11,-65,-98,4,-54,-2,84, 
  /* [21][0][][] */ 111,107,86,-71,111,-42,99,29,-14,-99,-46,54,39,39,-58,-69,-16,-14,28,8,127,-42,71,-61,73,-58,-75,89,48,30,-16,-13,37,52,-63,-90,110,106,-98,-15,18,35,5,-104,-64,-69,-25,91, 
  /* [22][0][][] */ -6,4,-44,-40,46,-14,69,-1,-12,62,51,-78,65,-68,-58,-20,51,29,-71,-39,45,-63,-10,13,85,14,-72,127,-17,-33,-56,-81,10,54,10,1,-5,-4,-26,-35,-17,-45,-24,36,31,-80,31,-17, 
  /* [23][0][][] */ 52,-70,5,32,91,-107,8,-87,105,-20,127,47,9,-85,44,-21,68,-47,-67,83,73,-77,71,-27,-12,-6,69,27,53,41,60,-26,-80,19,-1,10,78,9,-91,19,-84,15,24,-89,-33,-82,83,-3, 
  /* [24][0][][] */ -29,-46,-58,-28,-65,-40,-33,-33,53,69,23,24,71,45,-47,-127,2,35,11,-17,68,-51,-29,-14,29,-37,16,16,66,46,6,-28,1,17,36,31,-48,-64,47,-23,-58,-37,69,-33,19,-6,63,47, 
  /* [25][0][][] */ -52,-61,-35,-2,77,-34,-49,59,50,-45,11,15,21,28,-36,-24,-127,47,44,-44,54,67,16,-5,10,-29,-56,37,41,-45,45,96,20,-67,23,48,73,-35,-44,9,-53,60,-24,25,57,44,2,2, 
  /* [26][0][][] */ 43,-112,-29,-22,-102,-5,-16,-20,-107,-127,94,80,-83,-56,4,-14,120,21,-89,-70,6,64,89,13,63,63,6,48,12,5,-103,-6,-32,-70,-105,-118,-73,75,-63,101,-104,102,46,26,-87,65,-46,92, 
  /* [27][0][][] */ 40,-29,-26,-77,-43,-49,-49,26,69,127,45,-57,-8,63,98,-11,-9,11,66,-42,-57,39,27,24,-84,42,18,13,29,15,14,23,57,23,-53,-24,-34,-26,-57,84,-35,35,103,126,64,35,21,101, 
  /* [28][0][][] */ 86,4,74,42,-54,-58,-78,-38,-45,-100,18,89,-31,-48,31,79,9,114,-46,62,-7,61,-17,-51,-70,72,30,-46,-49,-60,49,17,15,9,88,102,46,-62,-17,23,113,25,-11,127,-81,1,13,94, 
  /* [29][0][][] */ 28,22,62,1,-39,-26,-68,-11,-16,-42,-50,-35,36,-33,9,-13,-105,75,36,-37,-45,36,105,-16,-81,-11,37,-40,-88,-40,106,10,7,0,-47,13,39,101,5,45,53,15,49,127,-35,54,-59,35, 
  /* [30][0][][] */ 28,-29,-5,17,-81,15,-21,-100,-24,-127,21,-32,-13,-40,32,11,-10,26,46,-31,18,-29,-29,-33,-55,-5,15,36,-8,-38,-93,0,-2,-42,-25,-2,11,12,12,-4,2,-45,3,65,56,-71,11,38, 
  /* [31][0][][] */ 94,-71,37,84,39,35,-62,-79,-66,-44,-106,-64,72,-82,-22,127,-89,-56,43,41,50,47,15,88,-6,-104,86,3,-72,-78,49,95,8,11,-62,25,85,-16,-39,-83,48,-65,18,103,-17,-67,-123,54, 
};
const TfArray<4, int> tensor_dimension5 = { 4, { 32,1,1,48 } };
const TfArray<32, float> quant5_scale = { 32, { 0.0033848399762064219, 0.003027359489351511, 0.0023511555045843124, 0.0035041512455791235, 0.0028930397238582373, 0.0027361470274627209, 0.0029752133414149284, 0.0028237595688551664, 0.0033540201839059591, 0.0026474297046661377, 0.0028333466034382582, 0.0029787421226501465, 0.004257984459400177, 0.0024864829611033201, 0.0028619056101888418, 0.0027787052094936371, 0.003558075986802578, 0.0027085936162620783, 0.0044129914604127407, 0.0025119783822447062, 0.0037601557560265064, 0.0023974943906068802, 0.0044833864085376263, 0.0027253881562501192, 0.0041017923504114151, 0.0037106135860085487, 0.0023040687665343285, 0.0035371931735426188, 0.0032148249447345734, 0.0041254246607422829, 0.0065761739388108253, 0.0030418739188462496, } };
const TfLiteAffineQuantization quant5 = { (TfLiteFloatArray*)&quant5_scale, (TfLiteIntArray*)&g0::quant4_zero, 0 };
const MODEL_SECTION(EI_MODEL_SECTION) ALIGN(16) int32_t tensor_data6[48] = { 1487, -1173, 5317, 1933, 1912, 229, 908, 3436, -1904, -1687, -515, 6138, 2725, 3493, 5500, -2985, -1380, 10010, 4048, 4570, 4153, 15296, 17230, 738, -1549, 864, -310, -999, 1543, 2324, 3329, 5238, -553, 339, 6215, 2866, 6031, 2836, 1146, -795, 2289, -1602, 4772, 510, 100, 2646, -1217, 7063, };
const TfArray<1, int> tensor_dimension6 = { 1, { 48 } };
const TfArray<48, float> quant6_scale = { 48, { 0.00032341555925086141, 0.00031395241967402399, 0.00015768363664392382, 0.00025310172350145876, 0.00029054947663098574, 0.00029476688359864056, 0.00017073335766326636, 0.00019531472935341299, 0.0001910517894430086, 0.00023307006631512195, 0.00038619971019215882, 0.00012526355567388237, 0.00024276226758956909, 0.00015951022214721888, 0.00016500361380167305, 0.00019760905706789345, 0.00039669184479862452, 0.00010521768126636744, 0.00016329518985003233, 0.00016791619418654591, 0.00019520944624673575, 7.6027274189982563e-05, 6.0918191593373194e-05, 0.00029414420714601874, 0.00026451455778442323, 0.00027774987393058836, 0.00022340637224260718, 0.00027171100373379886, 0.00019480042101349682, 0.00017948429740499705, 0.00020268878142815083, 0.00017757924797479063, 0.00025783717865124345, 0.00022528192494064569, 0.00014396132610272616, 0.00023183260054793209, 0.00015323412662837654, 0.00021835316147189587, 0.00020440499065443873, 0.00026959337992593646, 0.00029208790510892868, 0.00027645719819702208, 0.00019176617206539959, 0.00031717965612187982, 0.00038688728818669915, 0.0002048840542556718, 0.00032851650030352175, 0.00014217058196663857, } };
const TfArray<48, int> quant6_zero = { 48, { 0,0,0,0,0,0,0,0,0,0,0,0,0,0,0,0,0,0,0,0,0,0,0,0,0,0,0,0,0,0,0,0,0,0,0,0,0,0,0,0,0,0,0,0,0,0,0,0 } };
const TfLiteAffineQuantization quant6 = { (TfLiteFloatArray*)&quant6_scale, (TfLiteIntArray*)&quant6_zero, 0 };
const MODEL_SECTION(EI_MODEL_SECTION) ALIGN(16) int8_t tensor_data7[48*1*1*8] = { 
  /* [0][0][][] */ -3,22,127,7,8,36,3,-79, 
  /* [1][0][][] */ 73,-69,59,-105,-5,-76,127,35, 
  /* [2][0][][] */ 75,73,68,-56,-105,25,127,-28, 
  /* [3][0][][] */ -10,12,23,-21,10,-55,127,4, 
  /* [4][0][][] */ 127,-23,-47,-14,-100,-66,-29,63, 
  /* [5][0][][] */ 30,83,127,-2,20,-47,31,-24, 
  /* [6][0][][] */ 127,116,1,118,-80,38,-5,123, 
  /* [7][0][][] */ -15,-7,-27,49,34,-109,-127,-45, 
  /* [8][0][][] */ 107,93,-74,127,-101,20,-124,-56, 
  /* [9][0][][] */ 127,-20,-62,61,-8,-61,-9,-109, 
  /* [10][0][][] */ 65,29,-5,27,-26,127,35,-4, 
  /* [11][0][][] */ 127,-39,25,-121,107,-77,-47,114, 
  /* [12][0][][] */ -67,127,94,-20,10,53,-69,127, 
  /* [13][0][][] */ 127,23,-85,34,18,-106,19,-105, 
  /* [14][0][][] */ 96,17,-12,-21,-127,34,-79,-39, 
  /* [15][0][][] */ -33,-31,-92,-15,-52,-16,109,127, 
  /* [16][0][][] */ -14,-34,90,22,127,-46,-16,-19, 
  /* [17][0][][] */ 20,-12,90,-4,127,-61,-70,-2, 
  /* [18][0][][] */ 107,-59,127,54,-48,40,-49,-43, 
  /* [19][0][][] */ 63,62,68,-54,-62,-127,12,-39, 
  /* [20][0][][] */ 38,-16,56,127,-4,-66,-68,74, 
  /* [21][0][][] */ 92,-29,-105,-127,44,-48,-10,68, 
  /* [22][0][][] */ -50,-117,-71,-40,11,-19,127,-72, 
  /* [23][0][][] */ -6,33,13,-35,-86,-127,11,-10, 
  /* [24][0][][] */ 127,18,75,43,-6,-22,-74,126, 
  /* [25][0][][] */ 91,75,-26,-78,-50,-4,-54,127, 
  /* [26][0][][] */ -55,-16,-4,-127,109,36,-55,-55, 
  /* [27][0][][] */ 104,127,-4,-37,-11,37,28,8, 
  /* [28][0][][] */ -20,127,31,-5,39,-70,-66,117, 
  /* [29][0][][] */ 118,61,126,127,43,-53,-118,91, 
  /* [30][0][][] */ 110,-117,-127,108,71,24,-59,61, 
  /* [31][0][][] */ 82,-97,14,53,-103,-90,-127,16, 
  /* [32][0][][] */ -124,-55,17,-127,110,-70,29,-117, 
  /* [33][0][][] */ 22,20,39,29,19,-76,127,62, 
  /* [34][0][][] */ -71,89,127,-66,87,-82,-60,86, 
  /* [35][0][][] */ -77,32,25,127,-14,106,31,-19, 
  /* [36][0][][] */ 83,31,-33,-127,36,-17,40,50, 
  /* [37][0][][] */ 47,61,0,24,-90,127,82,78, 
  /* [38][0][][] */ -19,-83,37,127,40,65,12,122, 
  /* [39][0][][] */ 8,15,-127,60,-17,-43,-11,75, 
  /* [40][0][][] */ 41,-2,-87,-4,-29,56,-37,127, 
  /* [41][0][][] */ 23,15,0,-59,-113,-127,20,16, 
  /* [42][0][][] */ -46,54,-100,90,-30,91,-42,-127, 
  /* [43][0][][] */ -18,-6,-22,-127,-42,54,50,-96, 
  /* [44][0][][] */ 62,21,35,66,5,127,-49,9, 
  /* [45][0][][] */ 17,82,-43,25,127,-27,-86,-24, 
  /* [46][0][][] */ 73,-64,15,127,27,31,-61,63, 
  /* [47][0][][] */ -65,-103,32,-18,127,9,58,56, 
};
const TfArray<4, int> tensor_dimension7 = { 4, { 48,1,1,8 } };
const TfArray<48, float> quant7_scale = { 48, { 0.0035474661272019148, 0.0034436671994626522, 0.0017295932630077004, 0.0027762108948081732, 0.0031869662925601006, 0.0032332257833331823, 0.0018727324204519391, 0.0021423595026135445, 0.0020956003572791815, 0.0025564886163920164, 0.0042361300438642502, 0.0013739853166043758, 0.0026628000196069479, 0.0017496286891400814, 0.0018098842119798064, 0.0021675254683941603, 0.0043512159027159214, 0.001154107041656971, 0.0017911450704559684, 0.0018418316030874848, 0.0021412046626210213, 0.00083392456872388721, 0.00066819676430895925, 0.0032263959292322397, 0.0029013955499976873, 0.0030465703457593918, 0.0024504899047315121, 0.0029803314246237278, 0.0021367182489484549, 0.0019687192980200052, 0.0022232437040656805, 0.0019478233298286796, 0.0028281528502702713, 0.0024710623547434807, 0.0015790765173733234, 0.0025429150555282831, 0.0016807876527309418, 0.0023950624745339155, 0.0022420682944357395, 0.0029571040067821741, 0.0032038409262895584, 0.0030323914252221584, 0.0021034362725913525, 0.0034790660720318556, 0.0042436718940734863, 0.0022473230492323637, 0.0036034171935170889, 0.0015594343421980739, } };
const TfLiteAffineQuantization quant7 = { (TfLiteFloatArray*)&quant7_scale, (TfLiteIntArray*)&g0::quant6_zero, 0 };
const MODEL_SECTION(EI_MODEL_SECTION) ALIGN(16) int32_t tensor_data8[8] = { -5189, 3191, 2741, -8562, 2666, -4158, 8636, 11250, };
const TfArray<1, int> tensor_dimension8 = { 1, { 8 } };
const TfArray<8, float> quant8_scale = { 8, { 0.00017852570454124361, 0.00023688880901318043, 0.00013770800433121622, 0.0002486474986653775, 0.00010545715485932305, 0.00017744138312991709, 0.00011312095011817291, 0.00025075933081097901, } };
const TfArray<8, int> quant8_zero = { 8, { 0,0,0,0,0,0,0,0 } };
const TfLiteAffineQuantization quant8 = { (TfLiteFloatArray*)&quant8_scale, (TfLiteIntArray*)&quant8_zero, 0 };
const MODEL_SECTION(EI_MODEL_SECTION) ALIGN(16) int8_t tensor_data9[8*1*1*48] = { 
  /* [0][0][][] */ 127,-31,18,-38,16,73,7,39,122,-116,17,25,-43,88,20,-61,-6,-35,-30,-24,21,-77,4,-26,-74,-27,-68,-4,-24,101,-15,33,29,-73,6,-46,75,-89,-61,17,11,-67,-41,-14,71,-61,52,-55, 
  /* [1][0][][] */ 47,-13,-23,69,54,69,16,26,58,-81,-9,24,51,15,-53,-10,-54,-55,-84,-3,19,-50,60,72,-14,-41,-15,70,-23,77,-53,127,-27,15,-34,-31,-46,-14,-6,0,-78,-60,-8,28,21,-38,16,-81, 
  /* [2][0][][] */ -26,-44,-93,40,-48,-35,-27,13,-83,-39,-43,12,-23,22,-127,-6,12,-89,19,-24,100,92,-8,8,31,100,-12,-59,-30,26,44,-7,-41,28,19,-61,70,3,75,96,-38,59,38,-13,-72,20,-21,29, 
  /* [3][0][][] */ -10,-20,-13,26,-49,17,18,51,52,73,-127,-14,25,-23,-24,57,-55,0,3,32,16,-10,50,-3,-16,27,-37,38,-7,1,-36,5,18,-7,49,-10,47,-14,32,-14,-30,43,84,9,47,-8,-40,-20, 
  /* [4][0][][] */ -17,-92,8,-42,9,56,-61,-78,15,-21,109,56,-59,-66,-58,24,51,13,2,34,-72,5,121,-11,-82,-33,-4,-25,20,-34,-63,89,-59,73,-34,37,-37,42,3,-6,-27,71,-63,44,127,64,-5,-12, 
  /* [5][0][][] */ -48,-37,45,-127,-23,26,-30,-41,-13,70,-34,44,-68,37,26,5,79,40,47,9,31,-15,-15,-47,28,-63,15,-46,-18,-37,13,-56,1,-15,61,13,-11,22,37,25,101,31,-4,-29,-4,-2,-16,40, 
  /* [6][0][][] */ -23,-85,22,18,-40,-62,-17,-76,-114,22,-46,25,16,-41,61,7,-12,-4,-10,127,-61,17,67,95,-78,-1,28,40,13,10,-14,-73,-43,91,45,-58,-41,88,67,-16,-47,77,54,-61,-37,-21,-20,-1, 
  /* [7][0][][] */ 0,-21,1,-10,21,24,-48,-59,-127,-47,89,41,7,-27,8,13,15,21,0,-10,-42,21,-19,-22,35,30,-38,32,-7,13,-27,-57,-95,-53,-45,3,50,-6,-23,9,37,-24,57,-28,19,-64,44,6, 
};
const TfArray<4, int> tensor_dimension9 = { 4, { 8,1,1,48 } };
const TfArray<8, float> quant9_scale = { 8, { 0.0075873425230383873, 0.0100677739828825, 0.0058525898493826389, 0.010567517951130867, 0.004481928888708353, 0.0075412583537399769, 0.0048076403327286243, 0.01065727137029171, } };
const TfLiteAffineQuantization quant9 = { (TfLiteFloatArray*)&quant9_scale, (TfLiteIntArray*)&g0::quant8_zero, 0 };
const MODEL_SECTION(EI_MODEL_SECTION) ALIGN(16) int32_t tensor_data10[48] = { -554, 159, 12728, 95, -1168, -12342, -8315, 10299, 4353, -4376, -3753, -10119, -1701, 16547, 4723, -1780, 4377, -2420, 2377, -352, 9809, -9217, -3737, -679, 4596, -8045, -2298, -9827, 2133, -28346, -2759, 4048, -4104, -493, -3096, -670, 12968, -4338, 773, -15343, 602, 4948, -1722, -1593, 4020, -1839, 8467, -5038, };
const TfArray<48, float> quant10_scale = { 48, { 0.0003522170300129801, 0.00019446304941084236, 9.3353715783450752e-05, 0.00012071544915670529, 0.00029040165827609599, 0.00011180044384673238, 0.0001882909273263067, 0.00013964751269668341, 0.00015074525435920805, 0.00029559509130194783, 0.00033779119257815182, 5.9835783758899197e-05, 0.0003719422675203532, 8.4659142885357141e-05, 0.00027687149122357368, 0.00017701953765936196, 0.00017019893857650459, 0.0002148019993910566, 0.00018930700025521219, 0.00050417985767126083, 0.0001259402051800862, 0.00011666049977065995, 0.00012574420543387532, 0.0002691671543288976, 0.00020037201466038823, 0.00013814843259751797, 0.00024292670423164964, 0.00031265156576409936, 0.00016333266103174537, 0.00010536515765124932, 0.00025651173200458288, 0.00031918860622681677, 7.4376766860950738e-05, 0.00050389766693115234, 8.088317554211244e-05, 0.00041931969462893903, 0.00013260304694995284, 8.1257821875624359e-05, 9.8363983852323145e-05, 6.1774095229338855e-05, 0.00035573117202147841, 0.00010831737745320424, 0.00034710808540694416, 0.00019345250620972365, 0.00019510657875798643, 0.00017153729277197272, 0.00011693193664541468, 0.00011489591997815296, } };
const TfLiteAffineQuantization quant10 = { (TfLiteFloatArray*)&quant10_scale, (TfLiteIntArray*)&g0::quant6_zero, 0 };
const MODEL_SECTION(EI_MODEL_SECTION) ALIGN(16) int8_t tensor_data11[1*3*3*48] = { 
  /* [0][0][][] */ 82,78,-78,70,-15,53,-21,26,52,-32,64,106,-14,-70,-33,20,112,65,-86,-14,97,50,-29,-32,68,-14,61,36,-57,58,-9,-64,49,23,127,30,-42,10,83,43,-84,85,-127,-10,26,-127,-77,56, 75,127,-66,115,23,65,-87,-127,59,25,127,-70,-28,34,-16,-9,-40,127,-127,9,96,32,59,-34,-2,-50,25,127,-127,80,-14,-127,36,-59,39,100,-42,127,10,126,-127,-47,49,12,14,-4,-127,127, 69,47,-32,54,3,20,16,28,47,-6,54,65,10,-80,-31,-16,107,17,-69,-27,55,41,-7,1,52,32,51,11,-33,41,4,-28,41,-2,95,30,-31,13,127,35,-52,103,34,61,16,113,-37,50, 
  /* [0][1][][] */ -41,-44,-127,68,36,83,95,-49,35,70,-43,107,127,-20,-29,-34,-47,37,98,-10,-80,127,57,-88,0,110,31,27,48,55,23,36,75,127,85,69,-86,29,-25,127,35,16,43,-107,-9,-75,-20,92, 20,-48,-54,-127,127,47,127,-82,-127,127,1,43,-83,127,127,-3,-127,51,22,127,38,50,127,4,-127,127,22,-55,-97,13,-127,75,69,-109,64,127,127,120,13,94,67,-37,-15,-7,117,-37,9,75, -10,-45,-72,44,-28,127,96,-28,25,60,-30,38,-24,-34,-26,5,-70,43,108,-24,-99,111,-32,127,-5,87,26,48,101,89,30,21,84,7,14,20,-54,-51,34,84,33,96,4,127,-29,70,-44,73, 
  /* [0][2][][] */ -44,-66,-28,34,-20,33,-2,6,37,2,-22,45,51,-126,-22,41,64,14,54,-16,-121,59,45,0,7,-34,-17,27,67,103,44,-15,51,21,96,6,-34,62,83,-40,55,44,124,-37,-70,-73,-22,-16, -127,-4,-94,58,-116,17,7,7,34,96,-111,127,-19,-107,7,127,-57,17,-74,-21,-47,62,-10,-28,-35,0,-127,-6,-23,127,42,18,127,-31,-22,22,-25,78,-31,8,-4,-127,-88,-39,-127,48,-42,60, -14,-63,-53,30,-5,25,-6,26,26,-21,-11,98,-2,-114,-31,23,79,-7,96,2,-127,34,56,32,10,-56,-21,22,45,72,41,-10,32,22,44,17,-20,18,48,-22,37,45,-50,44,-44,83,-11,-21, 
};
const TfArray<4, int> tensor_dimension11 = { 4, { 1,3,3,48 } };
const TfArray<48, float> quant11_scale = { 48, { 0.01496922317892313, 0.0082646794617176056, 0.0039675328880548477, 0.0051304064691066742, 0.012342070229351521, 0.0047515188343822956, 0.0080023640766739845, 0.0059350193478167057, 0.0064066732302308083, 0.012562790885567665, 0.014356125146150589, 0.002543020760640502, 0.015807546675205231, 0.0035980134271085262, 0.011767038144171238, 0.0075233303941786289, 0.0072334548458456993, 0.0091290846467018127, 0.008045547641813755, 0.021427644416689873, 0.0053524584509432316, 0.0049580712802708149, 0.0053441287018358707, 0.011439603753387928, 0.0085158105939626694, 0.0058713080361485481, 0.010324385017156601, 0.01328769139945507, 0.0069416379556059837, 0.0044780191965401173, 0.010901748202741146, 0.013565516099333763, 0.0031610124278813601, 0.021415650844573975, 0.0034375349059700966, 0.017821086570620537, 0.0056356294080615044, 0.0034534572623670101, 0.0041804690845310688, 0.0026253990363329649, 0.015118574723601341, 0.0046034883707761765, 0.014752093702554703, 0.0082217315211892128, 0.0082920296117663383, 0.0072903349064290524, 0.0049696071073412895, 0.0048830765299499035, } };
const TfLiteAffineQuantization quant11 = { (TfLiteFloatArray*)&quant11_scale, (TfLiteIntArray*)&g0::quant6_zero, 3 };
const MODEL_SECTION(EI_MODEL_SECTION) ALIGN(16) int32_t tensor_data12[48] = { 23024, 5269, 585, 1787, 5745, 4269, 5568, 3205, 2243, -3815, 9820, 1626, 12295, 1913, 4824, 685, 4537, -1054, 5080, 480, 5204, -170, 3156, 12510, 2194, -3266, 1886, 9458, 643, 6117, 2713, 14982, 776, 7017, 15, -3023, 3102, 1085, -71, 1737, 8547, -127, 7625, 1953, 1051, 6219, 2912, -484, };
const TfArray<48, float> quant12_scale = { 48, { 4.5039658289169893e-05, 0.00015166588127613068, 0.00034020972088910639, 0.00017763115465641022, 0.00012995688302908093, 0.00016445461369585246, 0.00015362090198323131, 0.00021312198077794164, 0.00020030928135383874, 0.00018493219977244735, 9.9694145319517702e-05, 0.00019258241809438914, 7.4771160143427551e-05, 0.00021739638759754598, 0.00015554082347080112, 0.00026272740797139704, 0.00014129198098089546, 0.00028811421361751854, 0.00015614466974511743, 0.00026289251400157809, 0.00015015796816442162, 0.00034041475737467408, 0.00018729155999608338, 7.5387506512925029e-05, 0.00022317793627735227, 0.00017030729213729501, 0.00023149573826231062, 9.8073891422245651e-05, 0.00024610132095403969, 0.00014683901099488139, 0.00016334897372871637, 7.3108814831357449e-05, 0.00024866856983862817, 0.00012795304064638913, 0.00032043494866229594, 0.00023363111540675163, 0.00018937567074317485, 0.00018065251060761511, 0.00027008788310922682, 0.00019811061793006957, 0.00011186677875230089, 0.00026190365315414965, 9.3313101388048381e-05, 0.00020936733926646411, 0.00020887171558570117, 0.00013564947585109621, 0.00019408531079534441, 0.00035996054066345096, } };
const TfLiteAffineQuantization quant12 = { (TfLiteFloatArray*)&quant12_scale, (TfLiteIntArray*)&g0::quant6_zero, 0 };
const MODEL_SECTION(EI_MODEL_SECTION) ALIGN(16) int8_t tensor_data13[48*1*1*8] = { 
  /* [0][0][][] */ -127,64,-6,-20,89,42,-11,-82, 
  /* [1][0][][] */ 16,-14,-68,32,-24,-127,-10,22, 
  /* [2][0][][] */ -28,65,15,-64,-62,32,-52,127, 
  /* [3][0][][] */ 72,69,49,-45,-66,-127,56,28, 
  /* [4][0][][] */ 42,99,-127,11,-124,55,39,63, 
  /* [5][0][][] */ -50,63,32,-36,-84,-127,-84,-18, 
  /* [6][0][][] */ -82,123,127,-56,-70,-51,9,-71, 
  /* [7][0][][] */ -3,17,38,68,-9,-127,-14,6, 
  /* [8][0][][] */ 127,35,-60,69,-79,-52,-69,-18, 
  /* [9][0][][] */ 80,-45,-64,-78,5,-58,-29,127, 
  /* [10][0][][] */ -62,9,31,125,47,85,85,-127, 
  /* [11][0][][] */ 13,14,57,-15,19,86,127,81, 
  /* [12][0][][] */ -94,-117,6,-81,127,-45,-56,-24, 
  /* [13][0][][] */ -35,11,-19,33,33,-127,31,50, 
  /* [14][0][][] */ 71,112,127,38,33,-109,-48,65, 
  /* [15][0][][] */ -53,71,127,75,4,19,36,-74, 
  /* [16][0][][] */ -110,-42,-11,-89,127,3,-20,25, 
  /* [17][0][][] */ 44,-34,-56,11,-14,127,-21,62, 
  /* [18][0][][] */ -26,127,93,-24,-32,47,61,-86, 
  /* [19][0][][] */ -12,63,54,127,-6,37,-14,17, 
  /* [20][0][][] */ -8,-101,113,-127,-53,-18,56,-29, 
  /* [21][0][][] */ -40,82,15,-87,50,23,127,3, 
  /* [22][0][][] */ 114,-60,-91,42,35,-49,-79,127, 
  /* [23][0][][] */ 5,-73,-117,-34,105,-8,-127,24, 
  /* [24][0][][] */ 25,-8,-127,32,-83,-19,-109,81, 
  /* [25][0][][] */ 3,-21,29,-12,127,-23,-106,-80, 
  /* [26][0][][] */ 3,76,127,-24,-66,10,75,-45, 
  /* [27][0][][] */ -122,7,86,-127,10,-29,119,-120, 
  /* [28][0][][] */ 76,-15,127,101,89,-54,-4,50, 
  /* [29][0][][] */ 45,73,90,63,-26,43,-127,35, 
  /* [30][0][][] */ 25,-6,-86,86,-127,-97,-58,75, 
  /* [31][0][][] */ 22,84,83,-60,-87,28,109,-127, 
  /* [32][0][][] */ 63,-44,-17,33,80,127,34,-37, 
  /* [33][0][][] */ 42,-49,-127,17,59,-38,-15,100, 
  /* [34][0][][] */ 28,-39,26,-127,1,44,30,28, 
  /* [35][0][][] */ -15,-20,81,2,15,-127,-1,-25, 
  /* [36][0][][] */ -5,-9,-55,-127,6,39,4,-64, 
  /* [37][0][][] */ 87,-13,-82,-122,-94,127,-73,-39, 
  /* [38][0][][] */ 83,-67,-26,125,76,34,-56,127, 
  /* [39][0][][] */ 127,110,32,74,27,92,-40,-10, 
  /* [40][0][][] */ 15,-71,-127,-18,23,17,-34,116, 
  /* [41][0][][] */ 0,-39,-127,-50,-22,-69,-56,-12, 
  /* [42][0][][] */ 89,-9,45,95,-123,-64,30,127, 
  /* [43][0][][] */ 127,-8,-110,-82,-77,0,23,20, 
  /* [44][0][][] */ 33,64,127,-45,-61,-61,109,-106, 
  /* [45][0][][] */ 59,6,-127,-4,0,82,47,108, 
  /* [46][0][][] */ 26,-58,-37,-127,16,-1,-43,31, 
  /* [47][0][][] */ 97,-74,127,-51,37,-54,-7,30, 
};
const TfArray<48, float> quant13_scale = { 48, { 0.00065247516613453627, 0.0021971352398395538, 0.0049285097047686577, 0.0025732859503477812, 0.0018826439045369625, 0.0023824016097933054, 0.0022254569921642542, 0.0030874302610754967, 0.0029018167406320572, 0.0026790539268404245, 0.0014442373067140579, 0.0027898801490664482, 0.0010831860126927495, 0.0031493522692471743, 0.0022532704751938581, 0.0038060483057051897, 0.0020468519069254398, 0.004173818975687027, 0.0022620181553065777, 0.0038084399420768023, 0.0021752906031906605, 0.0049314801581203938, 0.0027132332324981689, 0.0010921148350462317, 0.0032331077381968498, 0.002467187587171793, 0.0033536050468683243, 0.001420765183866024, 0.0035651912912726402, 0.0021272099111229181, 0.0023663844913244247, 0.0010591041063889861, 0.0036023822613060474, 0.0018536149291321635, 0.0046420390717685223, 0.0033845396246761084, 0.0027434250805526972, 0.0026170553173869848, 0.0039126770570874214, 0.0028699655085802078, 0.001620578346773982, 0.0037941148038953543, 0.0013517971383407712, 0.0030330379959195852, 0.0030258579645305872, 0.0019651106558740139, 0.0028116521425545216, 0.0052146338857710361, } };
const TfLiteAffineQuantization quant13 = { (TfLiteFloatArray*)&quant13_scale, (TfLiteIntArray*)&g0::quant6_zero, 0 };
const MODEL_SECTION(EI_MODEL_SECTION) ALIGN(16) int32_t tensor_data14[8] = { -12748, -29700, 1703, 8023, -6804, -1223, -19072, 312, };
const TfArray<8, float> quant14_scale = { 8, { 0.00016819166194181889, 0.00012282187526579946, 0.00011287317465757951, 0.00010164012928726152, 9.2919864982832223e-05, 6.8196895881555974e-05, 0.00010074644524138421, 0.00014230514352675527, } };
const TfLiteAffineQuantization quant14 = { (TfLiteFloatArray*)&quant14_scale, (TfLiteIntArray*)&g0::quant8_zero, 0 };
const MODEL_SECTION(EI_MODEL_SECTION) ALIGN(16) int8_t tensor_data15[8*1*1*48] = { 
  /* [0][0][][] */ 63,69,-79,58,-2,28,-95,-41,23,-23,-11,-51,-41,-8,47,11,71,-14,46,-28,27,-37,29,22,18,-23,-17,6,-19,1,-27,7,45,15,25,33,127,77,31,-37,21,-12,-6,-13,80,15,9,-65, 
  /* [1][0][][] */ 51,6,2,5,43,100,-13,-42,63,50,-21,-76,66,-20,36,36,32,32,23,-111,117,-23,5,59,49,19,79,27,23,-80,95,110,51,103,2,127,54,43,25,-2,76,30,38,20,5,29,102,-83, 
  /* [2][0][][] */ -24,-24,86,127,-33,17,-2,38,20,70,6,-54,-45,97,8,15,-59,-122,77,-25,-2,62,-34,-89,-9,-13,34,-9,-79,14,22,-1,-16,9,-60,-30,16,18,-104,-19,-27,-56,-26,39,33,-79,-19,28, 
  /* [3][0][][] */ -56,29,-58,3,33,-54,-28,65,127,-78,-78,25,-42,-39,23,59,49,10,1,-43,-19,1,-98,59,-24,-23,35,-14,103,-95,34,-18,42,-20,11,-63,-124,22,-102,3,15,-55,47,6,-73,9,-26,-41, 
  /* [4][0][][] */ 70,-4,9,-30,-73,63,14,57,-127,-38,6,43,80,-54,-96,-76,67,51,44,-19,34,-74,36,9,-37,19,-56,-108,-71,-71,43,50,96,4,86,53,53,29,31,53,1,-16,-67,-17,78,55,55,-39, 
  /* [5][0][][] */ 52,74,14,65,20,4,-18,-72,-119,20,0,-13,21,61,23,-96,63,124,-10,74,-8,-51,27,-108,-127,-80,-57,84,-8,74,-14,8,-13,-62,99,-27,-17,90,-8,-102,-37,-33,-32,-29,2,27,-80,86, 
  /* [6][0][][] */ 114,67,-7,80,-121,13,36,68,3,-87,75,78,65,-8,-66,-68,10,0,-96,-25,85,-26,-29,-23,1,70,-35,-45,-17,6,65,39,48,-36,-41,82,81,-86,33,39,-90,74,-127,39,101,86,105,-53, 
  /* [7][0][][] */ 34,7,127,33,-37,53,-66,-6,-20,108,-19,-17,56,60,-13,-18,-54,-43,-58,-4,2,31,24,-25,-21,49,76,2,-13,-19,47,3,-89,-17,16,40,66,-2,21,-4,-17,-43,-13,-46,1,-30,-2,6, 
};
const TfArray<8, float> quant15_scale = { 8, { 0.0071481452323496342, 0.0052199293859302998, 0.0047971098683774471, 0.0043197055347263813, 0.0039490940980613232, 0.0028983680531382561, 0.0042817238718271255, 0.0060479682870209217, } };
const TfLiteAffineQuantization quant15 = { (TfLiteFloatArray*)&quant15_scale, (TfLiteIntArray*)&g0::quant8_zero, 0 };
const MODEL_SECTION(EI_MODEL_SECTION) ALIGN(16) int32_t tensor_data16[48] = { 13662, -19066, -849, 3417, 290, 6350, 5283, -3307, -10336, 4361, -2336, -4925, -11855, -18002, 4565, 1, -1871, 20446, 30, -9120, 18527, -2489, -582, 10535, 2108, -824, 497, -423, -286, 1233, -2088, 15081, 14794, 89, -765, 14840, 914, 19829, 1054, 1478, -36, -2342, -477, -1290, 10, 13840, 9918, -616, };
const TfArray<48, float> quant16_scale = { 48, { 0.0001197821693494916, 9.3319176812656224e-05, 0.0010758815333247185, 0.00028970185667276382, 0.0002019583189394325, 0.00017336042947135866, 0.00011145458120154217, 0.00038012879667803645, 0.00010494623711565509, 0.00047460678615607321, 0.00016934364975895733, 6.7611283157020807e-05, 0.0001335509296040982, 9.0680041466839612e-05, 0.00023391263675875962, 0.00021148558880668133, 0.00021271940204314888, 9.3970273155719042e-05, 0.00050388951785862446, 7.1711147029418498e-05, 6.6723172494675964e-05, 0.00049214687896892428, 0.00014669881784357131, 0.00020055838103871793, 0.00046965386718511581, 0.00034852279350161552, 0.00023929373128339648, 0.00052532745758071542, 0.00022585141414310783, 0.00017125415615737438, 0.00012081980821676552, 0.00010033469152403995, 0.00012083977344445884, 0.00019548465206753463, 0.00019409044762142003, 0.00013977891649119556, 0.00072715565329417586, 0.00011378707858966663, 0.00019045981753151864, 0.0004963281680829823, 0.00017259988817386329, 0.00033137758146040142, 0.00021624707733280957, 8.749946573516354e-05, 0.00034043606137856841, 8.1390506238676608e-05, 0.00013212216435931623, 0.00015699258074164391, } };
const TfLiteAffineQuantization quant16 = { (TfLiteFloatArray*)&quant16_scale, (TfLiteIntArray*)&g0::quant6_zero, 0 };
const MODEL_SECTION(EI_MODEL_SECTION) ALIGN(16) int8_t tensor_data17[1*3*3*48] = { 
  /* [0][0][][] */ 19,27,40,-3,120,-35,-11,5,48,11,40,32,58,17,-88,-59,33,-67,-3,58,-57,10,-65,-69,-19,23,-18,-37,-33,127,37,14,-27,116,127,-36,7,-102,-127,-23,53,-14,18,-24,0,-65,-114,-74, -9,127,-77,27,1,-127,83,-7,118,3,6,25,92,127,5,36,46,-86,5,86,14,-5,47,-127,-1,22,-123,15,-24,-106,53,-103,-127,-73,69,79,-65,-33,-115,35,-89,-64,51,-114,33,-70,73,55, 10,96,-14,-19,80,-4,-1,-12,38,16,33,29,54,4,-83,-18,36,-57,-12,51,25,11,-60,-76,-26,24,-18,-88,-45,72,23,-18,-6,-46,113,-56,14,-99,-106,18,69,-21,15,-4,4,-127,-127,4, 
  /* [0][1][][] */ -54,71,-31,-61,4,-2,11,6,12,7,-14,96,43,121,-29,-9,53,-127,34,116,-62,-43,-119,-47,-127,-1,-23,25,-32,-9,73,-113,-31,127,-75,-127,35,-32,60,37,-127,42,-127,121,-3,-29,6,-70, -93,97,127,127,-53,66,-127,127,48,-127,-119,104,127,64,127,-57,-127,-64,127,122,-126,127,82,-7,94,79,84,127,127,-127,-40,17,-38,-92,21,-100,127,127,87,59,-124,127,-37,127,127,76,14,-119, -63,91,-22,-52,-86,-56,35,-14,-1,4,46,127,41,92,-52,56,75,-94,-9,127,24,-49,-115,-41,-12,-4,-20,20,-22,18,90,-76,1,-63,-108,-98,39,-57,62,-127,-94,29,106,119,-24,-64,-8,127, 
  /* [0][2][][] */ -64,-33,20,-18,59,-11,50,11,35,18,85,34,38,101,-28,127,79,-10,-59,35,-97,-3,-11,-4,7,-2,-59,-36,48,75,91,-84,-28,25,-52,-25,-48,-58,53,-59,102,-33,-42,37,-31,-11,-5,-54, -127,49,-25,15,-127,-96,88,-63,127,-4,117,-8,-27,75,-4,110,19,9,-39,58,-127,16,127,95,16,-127,127,26,28,-32,127,-127,-49,-34,-67,-62,-88,-32,-6,29,69,-6,-53,44,-30,8,-53,-47, -53,27,42,-18,-45,-32,37,21,79,16,127,48,29,86,-21,23,56,36,-78,37,-71,-10,-19,-31,23,6,-45,-54,25,64,92,-82,21,-13,-40,-9,-36,-56,43,-6,53,-12,50,54,-22,-8,17,-11, 
};
const TfArray<48, float> quant17_scale = { 48, { 0.0051650162786245346, 0.0040239300578832626, 0.046392094343900681, 0.012491965666413307, 0.0087084583938121796, 0.0074753151275217533, 0.004805929958820343, 0.016391182318329811, 0.0045252898707985878, 0.020465081557631493, 0.0073021110147237778, 0.0029154035728424788, 0.0057587265037000179, 0.0039101303555071354, 0.010086330585181713, 0.0091192750260233879, 0.0091724768280982971, 0.0040520052425563335, 0.021727753803133965, 0.0030921902507543564, 0.0028771082870662212, 0.021221410483121872, 0.0063256644643843174, 0.0086480928584933281, 0.020251510664820671, 0.015028329566121101, 0.010318364016711712, 0.022652160376310349, 0.0097387302666902542, 0.0073844925500452518, 0.0052097593434154987, 0.0043264394626021385, 0.0052106203511357307, 0.0084293130785226822, 0.0083691952750086784, 0.0060272775590419769, 0.031355008482933044, 0.0049065076746046543, 0.0082126418128609657, 0.021401708945631981, 0.0074425204657018185, 0.014289027079939842, 0.0093245906755328178, 0.0037729835603386164, 0.014679629355669022, 0.0035095647908747196, 0.0056971176527440548, 0.0067695323377847672, } };
const TfLiteAffineQuantization quant17 = { (TfLiteFloatArray*)&quant17_scale, (TfLiteIntArray*)&g0::quant6_zero, 3 };
const MODEL_SECTION(EI_MODEL_SECTION) ALIGN(16) int32_t tensor_data18[48] = { 479, 7316, -6821, 3242, 2201, 3586, 2184, 11410, 4583, 7695, -612, 188, 2299, 2935, 910, -1467, -708, 2974, 22113, 2030, 2684, 11468, 2854, 7989, 9432, 4498, 431, 12299, 2953, 5924, -1080, 3851, 2413, 11142, 5627, 4547, 61215, 9443, 4583, 5357, 2667, 864, 3403, -367, 4214, 1421, 1125, 2698, };
const TfArray<48, float> quant18_scale = { 48, { 0.0004943793173879385, 0.0001232195645570755, 0.00010653984645614401, 0.00018614184227772057, 0.00019983660604339093, 0.00018155570433009416, 0.00026211881777271628, 7.882915815571323e-05, 0.00016600787057541311, 0.00011118553084088489, 0.00025871137040667236, 0.00021670774731319398, 0.00018505308253224939, 0.00022202140826266259, 0.00041548829176463187, 0.00018310647283215076, 0.00020290592510718852, 0.00022482845815829933, 4.8099136620294303e-05, 0.0001836855080910027, 0.00015705537225585431, 7.4621151725295931e-05, 0.0001844074868131429, 0.00010940842184936628, 0.00010239794937660918, 0.00017903698608279228, 0.00028158281929790974, 7.1324495365843177e-05, 9.9671655334532261e-05, 0.00012778611562680453, 0.00039406839641742408, 0.00016936674364842474, 0.00022360113507602364, 7.9846096923574805e-05, 0.00011226756760152057, 0.00018613255815580487, 2.5875189749058336e-05, 0.00010048369586002082, 0.00015050421643536538, 0.00015963987971190363, 0.00015634410374332219, 0.0002173917309846729, 0.00018821856065187603, 0.00013458370813168585, 0.00015705554687883705, 0.00017955180373974144, 0.00031892347033135593, 0.00015240565699059516, } };
const TfLiteAffineQuantization quant18 = { (TfLiteFloatArray*)&quant18_scale, (TfLiteIntArray*)&g0::quant6_zero, 0 };
const MODEL_SECTION(EI_MODEL_SECTION) ALIGN(16) int8_t tensor_data19[48*1*1*8] = { 
  /* [0][0][][] */ -51,-127,-33,29,-35,-7,32,-38, 
  /* [1][0][][] */ -15,127,15,-89,29,-92,-99,123, 
  /* [2][0][][] */ -127,-95,44,3,99,5,33,-27, 
  /* [3][0][][] */ 4,-32,-127,-45,18,-41,-44,62, 
  /* [4][0][][] */ -66,-119,107,-9,127,-15,57,12, 
  /* [5][0][][] */ -27,70,22,-89,103,32,-62,127, 
  /* [6][0][][] */ -127,66,45,46,-43,-4,24,-106, 
  /* [7][0][][] */ 31,-10,20,16,32,-127,43,122, 
  /* [8][0][][] */ 13,54,-28,-20,40,71,127,-52, 
  /* [9][0][][] */ 55,106,44,-44,-65,-33,-32,127, 
  /* [10][0][][] */ 84,4,37,16,-44,33,-127,-74, 
  /* [11][0][][] */ -40,23,-82,-43,127,17,12,14, 
  /* [12][0][][] */ 84,39,-35,7,127,57,21,5, 
  /* [13][0][][] */ -127,-90,-6,48,-105,38,50,21, 
  /* [14][0][][] */ -3,37,-56,78,-7,127,-3,-13, 
  /* [15][0][][] */ 20,-79,2,-2,127,45,22,18, 
  /* [16][0][][] */ 91,-54,16,25,13,-15,61,-127, 
  /* [17][0][][] */ -77,-94,-127,98,0,70,72,-94, 
  /* [18][0][][] */ 103,12,127,30,-55,-127,-26,-17, 
  /* [19][0][][] */ 11,127,56,34,102,-88,-70,-58, 
  /* [20][0][][] */ -44,-2,-127,-68,66,21,-13,-43, 
  /* [21][0][][] */ -37,-12,32,127,-90,-91,114,-101, 
  /* [22][0][][] */ 37,25,-127,-74,-62,-36,37,71, 
  /* [23][0][][] */ -47,25,127,-76,-79,0,5,-103, 
  /* [24][0][][] */ -106,120,31,104,100,127,1,49, 
  /* [25][0][][] */ -40,-127,-72,36,-56,6,86,41, 
  /* [26][0][][] */ 127,-16,-100,-45,-104,-22,-27,43, 
  /* [27][0][][] */ 127,69,-82,104,-120,8,-29,3, 
  /* [28][0][][] */ -112,50,22,-67,76,26,-127,-112, 
  /* [29][0][][] */ -8,44,-66,-123,-127,32,-21,-102, 
  /* [30][0][][] */ -62,-25,17,127,57,-8,-26,-10, 
  /* [31][0][][] */ 18,-89,-41,-45,-103,13,-49,-127, 
  /* [32][0][][] */ -127,-21,27,-4,3,-26,-21,22, 
  /* [33][0][][] */ -27,-127,-63,-62,33,17,-68,-1, 
  /* [34][0][][] */ 5,59,127,104,-73,-58,69,-79, 
  /* [35][0][][] */ 48,21,4,10,-93,-36,-127,-16, 
  /* [36][0][][] */ 127,-17,23,-81,15,-27,54,62, 
  /* [37][0][][] */ 73,63,-15,-31,62,75,-127,34, 
  /* [38][0][][] */ -26,84,127,92,-41,77,3,-62, 
  /* [39][0][][] */ 24,65,127,-47,39,-31,1,-17, 
  /* [40][0][][] */ 127,-34,21,43,-69,-110,-2,-26, 
  /* [41][0][][] */ 22,-53,28,127,-27,46,-4,61, 
  /* [42][0][][] */ -35,-127,67,-34,89,-2,34,36, 
  /* [43][0][][] */ -37,-42,-127,-85,82,56,-126,92, 
  /* [44][0][][] */ 127,-44,124,17,-7,11,-48,0, 
  /* [45][0][][] */ -17,0,0,5,-58,-127,53,47, 
  /* [46][0][][] */ -45,60,45,17,2,-25,0,-127, 
  /* [47][0][][] */ -15,-24,7,92,12,-127,41,41, 
};
const TfArray<48, float> quant19_scale = { 48, { 0.0092124547809362411, 0.00229612085968256, 0.0019853045232594013, 0.003468638751655817, 0.0037238323129713535, 0.0033831789623945951, 0.0048844227567315102, 0.0014689329545944929, 0.0030934545211493969, 0.0020718739833682775, 0.0048209275119006634, 0.0040382156148552895, 0.0034483503550291061, 0.0041372324340045452, 0.0077423690818250179, 0.0034120765049010515, 0.0037810271605849266, 0.0041895401664078236, 0.00089629786089062691, 0.0034228665754199028, 0.0029266304336488247, 0.0013905193191021681, 0.0034363202285021544, 0.0020387587137520313, 0.0019081227947026491, 0.0033362442627549171, 0.0052471226081252098, 0.0013290881179273129, 0.0018573199631646276, 0.0023812158033251762, 0.0073432223871350288, 0.0031560452189296484, 0.0041666696779429913, 0.0014878829242661595, 0.0020920371171087027, 0.0034684657584875822, 0.0004821682523470372, 0.0018724518595263362, 0.0028045536018908024, 0.0029747909866273403, 0.0029133763164281845, 0.0040509612299501896, 0.0035073370672762394, 0.0025078847538679838, 0.0029266334604471922, 0.0033458373509347439, 0.0059429430402815342, 0.0028399857692420483, } };
const TfLiteAffineQuantization quant19 = { (TfLiteFloatArray*)&quant19_scale, (TfLiteIntArray*)&g0::quant6_zero, 0 };
const MODEL_SECTION(EI_MODEL_SECTION) ALIGN(16) int32_t tensor_data20[8] = { 6435, 438, 15796, -6516, -14361, -13821, -3647, 1820, };
const TfArray<8, float> quant20_scale = { 8, { 9.7452444606460631e-05, 0.00011416491179261357, 8.6020350863691419e-05, 0.00010432679118821397, 0.00011523598368512467, 0.00010142609244212508, 0.00018591458501759917, 0.0001863319193944335, } };
const TfLiteAffineQuantization quant20 = { (TfLiteFloatArray*)&quant20_scale, (TfLiteIntArray*)&g0::quant8_zero, 0 };
const MODEL_SECTION(EI_MODEL_SECTION) ALIGN(16) int8_t tensor_data21[8*1*1*48] = { 
  /* [0][0][][] */ -22,-30,36,-53,49,77,68,94,85,-42,-21,45,-46,-23,14,-14,35,35,24,-61,-33,8,-76,-43,17,-18,11,-60,-42,18,47,25,39,51,60,20,104,-42,-77,0,-57,-56,-26,-30,-60,-93,-127,62, 
  /* [1][0][][] */ -16,-1,-41,48,-2,19,-40,-14,-52,29,15,80,-15,8,-14,127,35,44,3,-23,-39,-34,-56,12,24,-23,-18,-81,35,-14,-40,-55,62,-22,-36,-50,42,20,38,-33,1,67,28,-54,-19,-42,-54,-29, 
  /* [2][0][][] */ -19,-69,-13,-12,-43,23,15,-2,116,14,-12,-7,-45,-97,42,3,2,-58,-32,-9,-102,64,26,18,17,57,-11,-26,-41,-37,43,-44,-94,19,-56,28,-83,58,-9,-18,127,-37,-15,46,1,36,-66,-24, 
  /* [3][0][][] */ -40,-115,88,74,18,-92,-51,3,-127,111,34,-47,63,11,-20,21,59,20,-19,43,85,76,38,-77,10,84,50,33,-38,-93,7,21,-47,2,48,21,-10,-91,-52,36,-26,-16,-2,-58,-84,-7,-14,25, 
  /* [4][0][][] */ -2,56,-7,80,31,9,15,-15,-34,73,36,93,9,28,68,7,4,-107,3,-10,110,8,-127,56,68,-3,47,21,58,34,-19,-66,-49,109,0,-1,68,-37,37,26,-18,36,-15,-16,-5,-64,-39,25, 
  /* [5][0][][] */ -23,-3,-2,-63,-80,31,127,17,14,47,0,-19,-77,-3,70,-23,-89,20,-48,-46,7,97,-9,16,103,34,-9,-3,10,-24,113,-50,-42,89,68,88,-15,40,85,21,-1,-23,-17,17,-46,16,2,28, 
  /* [6][0][][] */ -11,-18,-9,27,-72,-48,-21,10,24,-14,43,11,-38,-19,27,48,1,-62,-8,-72,74,-32,-13,-41,-2,0,-12,39,40,-14,5,127,36,-19,-12,17,-5,-14,9,5,-8,33,-33,-40,-28,-42,-41,42, 
  /* [7][0][][] */ -42,-10,-42,-4,-4,-24,5,16,37,5,26,-10,-7,13,3,-8,25,-3,-13,-14,-60,12,7,-44,-4,-4,-56,-23,-6,-34,16,31,13,-24,32,8,-29,127,-12,-44,-42,1,-50,-44,-2,54,-71,-19, 
};
const TfArray<8, float> quant21_scale = { 8, { 0.0041417288593947887, 0.0048520085401833057, 0.0036558648571372032, 0.0044338884763419628, 0.0048975292593240738, 0.0043106088414788246, 0.0079013695940375328, 0.0079191066324710846, } };
const TfLiteAffineQuantization quant21 = { (TfLiteFloatArray*)&quant21_scale, (TfLiteIntArray*)&g0::quant8_zero, 0 };
const MODEL_SECTION(EI_MODEL_SECTION) ALIGN(16) int32_t tensor_data22[48] = { 1, 33545, 28990, 1270, 1331, -18311, 27503, 23249, -12714, 8736, -963, 13916, 11333, -17878, -9624, -1503, 1132, 46152, -1181, 545, 53910, 11671, -7400, -4398, 17388, 14740, -5232, -109, -5455, -173, 30914, 3518, -4563, 3978, 11920, 12663, -1185, 49705, -6119, 6599, 29651, 2810, -1815, 12582, -169, -1174, -14207, 16517, };
const TfArray<48, float> quant22_scale = { 48, { 0.00017992914945352823, 0.00010471593122929335, 6.7908076744060963e-05, 8.8559274445287883e-05, 4.6468339860439301e-05, 6.6686152422334999e-05, 0.0001101427769754082, 6.6802880610339344e-05, 0.00044440908823162317, 3.1399958970723674e-05, 6.088586087571457e-05, 0.00010140959057025611, 0.00012823179713450372, 0.00016203605628106743, 7.7990895078983158e-05, 6.5265827288385481e-05, 7.3173527198377997e-05, 8.4172883362043649e-05, 0.00040223108953796327, 6.6520748077891767e-05, 4.8918107495410368e-05, 8.0382735177408904e-05, 8.6271662439685315e-05, 0.00012434289965312928, 7.8068420407362282e-05, 6.2897379393689334e-05, 0.00011415773042244837, 0.00011825853289337829, 0.00010159331577597186, 0.00026836182223632932, 0.00014155822282191366, 7.1003320044837892e-05, 5.4000411182641983e-05, 0.00010806326463352889, 0.00010582442337181419, 8.4293671534396708e-05, 7.0917274570092559e-05, 7.4224983109161258e-05, 9.266657434636727e-05, 4.7639001422794536e-05, 8.8629138190299273e-05, 0.00012106400390621275, 6.1475519032683223e-05, 0.00010806245700223371, 0.00013710677740164101, 0.00015921986778266728, 0.00030111786327324808, 8.4201645222492516e-05, } };
const TfLiteAffineQuantization quant22 = { (TfLiteFloatArray*)&quant22_scale, (TfLiteIntArray*)&g0::quant6_zero, 0 };
const MODEL_SECTION(EI_MODEL_SECTION) ALIGN(16) int8_t tensor_data23[1*3*3*48] = { 
  /* [0][0][][] */ 91,-89,-4,28,53,78,-127,-126,14,99,66,-66,1,84,69,61,57,-83,41,77,-116,-95,44,127,-36,-87,83,73,50,84,-64,69,56,-83,-121,-124,101,-63,99,88,-108,5,24,-44,23,99,110,-75, 92,-127,-55,101,50,70,-64,-76,21,86,91,-127,-11,76,32,75,64,-121,85,68,-127,-114,48,124,-104,-127,127,78,127,127,-56,92,59,-1,-127,-97,106,-66,61,118,-127,27,32,-91,48,106,110,-127, 37,-107,-73,17,36,7,-30,-92,19,62,60,-42,7,53,38,47,35,-69,62,61,-53,-58,18,42,-41,-39,94,28,60,50,8,29,43,0,-95,-22,53,-66,56,91,-59,113,-1,-61,-11,39,50,-67, 
  /* [0][1][][] */ 59,-55,-91,97,82,127,-115,-127,109,122,124,-35,-30,113,125,100,77,-127,127,127,-77,-93,94,116,-118,-106,96,107,81,59,-112,91,107,-90,-82,-108,120,-116,127,52,-98,85,94,-30,126,106,113,-89, 22,-33,-127,127,127,127,-81,-100,127,127,127,-76,-51,127,127,127,127,-121,86,117,-56,-127,127,116,-127,-96,98,127,96,99,-127,127,127,-127,-33,-127,127,-127,122,127,-114,66,127,-43,121,127,87,-85, -55,-100,-90,61,51,38,-87,-86,65,35,46,-41,-66,91,54,45,44,-55,77,79,-58,-71,62,91,-19,21,33,55,31,18,-49,46,82,-33,-28,17,82,-77,73,53,-33,121,23,-77,40,27,16,-71, 
  /* [0][2][][] */ -47,-22,-61,76,66,79,-119,-108,-48,119,44,-54,-22,35,97,52,48,-80,30,89,-25,-32,51,37,-67,-38,58,72,17,18,-54,23,79,-113,-35,-42,25,-36,31,62,-41,127,122,-48,127,76,-107,-87, -127,-77,-92,84,100,102,-69,-14,-40,112,78,-17,-127,51,114,77,69,-74,-106,89,-19,-62,71,61,-119,-24,67,110,74,59,-54,39,83,-84,23,-68,56,-30,24,55,-19,68,116,-127,127,66,-127,-77, -58,-78,-46,51,45,79,-60,-54,-48,84,-18,-39,-91,15,53,34,12,-57,11,39,-12,-43,35,42,-38,51,47,87,52,32,-20,8,69,-7,-15,68,48,-44,38,-11,-19,46,63,-18,42,-3,-65,-80, 
};
const TfArray<48, float> quant23_scale = { 48, { 0.0076469886116683483, 0.0044504269026219845, 0.0028860932216048241, 0.0037637690547853708, 0.0019749044440686703, 0.0028341615106910467, 0.0046810680069029331, 0.0028391224332153797, 0.018887385725975037, 0.0013344981707632542, 0.0025876490399241447, 0.0043099075555801392, 0.0054498515091836452, 0.0068865320645272732, 0.0033146128989756107, 0.0027737976051867008, 0.0031098749022930861, 0.0035773473791778088, 0.017094820737838745, 0.0028271318878978491, 0.0020790195558220148, 0.0034162660595029593, 0.0036665457300841808, 0.0052845729514956474, 0.0033179079182446003, 0.0026731386315077543, 0.0048517035320401192, 0.0050259875133633614, 0.0043177157640457153, 0.011405376717448235, 0.0060162241570651531, 0.0030176411382853985, 0.0022950174752622843, 0.0045926887542009354, 0.0044975378550589085, 0.0035824810620397329, 0.0030139840673655272, 0.0031545616220682859, 0.0039383294060826302, 0.0020246575586497784, 0.0037667383439838886, 0.005145220085978508, 0.0026127095334231853, 0.0045926542952656746, 0.0058270380832254887, 0.0067668445408344269, 0.01279750932008028, 0.0035785697400569916, } };
const TfLiteAffineQuantization quant23 = { (TfLiteFloatArray*)&quant23_scale, (TfLiteIntArray*)&g0::quant6_zero, 3 };
const MODEL_SECTION(EI_MODEL_SECTION) ALIGN(16) int32_t tensor_data24[48] = { -1781, 8116, 2722, -911, 71, 6040, 3277, 860, 7401, 1188, -1095, 1912, 3164, 1336, -512, 151, -1218, 6939, -2592, -687, 1050, 492, 594, -756, 487, 1338, -883, -1609, -304, -1961, 11868, 1973, 245, 859, 1148, 540, 147, 5673, 952, -362, 4502, -1487, 467, 911, -1274, -2496, 11292, 2118, };
const TfArray<48, float> quant24_scale = { 48, { 0.0002530523925088346, 0.00012673115998040885, 0.00028939481126144528, 0.00033202953636646271, 0.00077466829679906368, 0.00014121261483523995, 0.00027456885436549783, 0.00036171253304928541, 0.00012901214358862489, 0.00050371675752103329, 0.00033578553120605648, 0.00028959958581253886, 0.00021800903778057545, 0.00034745744778774679, 0.00042043501161970198, 0.0002962443686556071, 0.00027981633320450783, 0.00014351382560562342, 0.00020451289310585707, 0.00044855056330561638, 0.00040215981425717473, 0.00039728652336634696, 0.00033450213959440589, 0.00028545747045427561, 0.00043826107867062092, 0.00026799799525178969, 0.00038566600414924324, 0.00023557014355901629, 0.00044835949665866792, 0.00024223180662374943, 9.6020085038617253e-05, 0.00033097062259912491, 0.00055811315542086959, 0.00043131114216521382, 0.00022584926045965403, 0.00036686586099676788, 0.00030823468114249408, 0.00016597262583673, 0.00044781059841625392, 0.00022438883024733514, 0.0001998272055061534, 0.00017752640997059643, 0.00042556776315905154, 0.00042559488792903721, 0.00045134627725929022, 0.00023910934396553785, 0.00010041267523774877, 0.00027575145941227674, } };
const TfLiteAffineQuantization quant24 = { (TfLiteFloatArray*)&quant24_scale, (TfLiteIntArray*)&g0::quant6_zero, 0 };
const MODEL_SECTION(EI_MODEL_SECTION) ALIGN(16) int8_t tensor_data25[48*1*1*8] = { 
  /* [0][0][][] */ 54,47,-117,23,-4,45,-127,75, 
  /* [1][0][][] */ 0,-69,-107,13,-26,-12,98,-127, 
  /* [2][0][][] */ -127,-60,-63,-50,-35,57,-120,-3, 
  /* [3][0][][] */ -78,-52,33,-1,-34,-127,-102,-5, 
  /* [4][0][][] */ -49,-127,-39,21,68,36,-52,-48, 
  /* [5][0][][] */ 54,-39,72,67,-127,74,-65,-107, 
  /* [6][0][][] */ 49,-127,-77,-48,2,79,-70,-98, 
  /* [7][0][][] */ 2,-88,-75,-54,85,-127,-17,11, 
  /* [8][0][][] */ 4,84,48,77,48,-41,19,127, 
  /* [9][0][][] */ -25,-53,-32,2,41,-12,127,-24, 
  /* [10][0][][] */ -24,14,-127,18,24,6,77,-88, 
  /* [11][0][][] */ -48,-41,-56,10,-127,38,51,55, 
  /* [12][0][][] */ 101,74,-28,50,-70,127,79,-19, 
  /* [13][0][][] */ -35,-7,26,-37,45,-127,3,56, 
  /* [14][0][][] */ -62,-64,14,44,-16,65,-108,-127, 
  /* [15][0][][] */ 65,67,73,14,-127,45,115,-60, 
  /* [16][0][][] */ 46,-74,16,127,3,-97,8,-110, 
  /* [17][0][][] */ -51,127,30,-15,-46,-45,-93,-73, 
  /* [18][0][][] */ 28,126,-127,-90,68,108,-98,-41, 
  /* [19][0][][] */ -38,84,-28,-5,-127,5,-70,-104, 
  /* [20][0][][] */ -127,10,10,37,36,32,126,66, 
  /* [21][0][][] */ -20,-11,39,-8,-96,-82,-127,31, 
  /* [22][0][][] */ -8,-43,-52,-13,-127,-2,-16,60, 
  /* [23][0][][] */ 77,5,-3,-2,127,60,-66,103, 
  /* [24][0][][] */ 127,3,-27,26,-63,2,28,-28, 
  /* [25][0][][] */ 20,-84,75,114,-105,-117,19,127, 
  /* [26][0][][] */ 17,127,24,37,74,-1,1,3, 
  /* [27][0][][] */ -127,116,51,-26,114,-83,-16,109, 
  /* [28][0][][] */ -57,-65,-41,-32,73,-127,6,0, 
  /* [29][0][][] */ -72,-23,-2,45,127,-38,-48,86, 
  /* [30][0][][] */ 120,16,-106,-127,-102,-109,-70,-69, 
  /* [31][0][][] */ 31,-4,42,64,-127,3,27,8, 
  /* [32][0][][] */ 127,22,55,40,-35,-80,94,58, 
  /* [33][0][][] */ 125,26,-20,14,-127,-65,35,40, 
  /* [34][0][][] */ 33,-37,-23,61,-46,127,19,-98, 
  /* [35][0][][] */ 120,26,-10,-49,49,-100,32,127, 
  /* [36][0][][] */ -33,-17,76,-89,-16,-32,80,-127, 
  /* [37][0][][] */ 26,-70,49,48,84,-16,42,-127, 
  /* [38][0][][] */ 81,127,13,-16,-32,31,31,88, 
  /* [39][0][][] */ 83,50,-119,122,-18,-64,-96,127, 
  /* [40][0][][] */ -24,-43,6,-39,35,-127,26,55, 
  /* [41][0][][] */ -14,37,-125,-54,66,127,88,-112, 
  /* [42][0][][] */ 1,-41,-33,-2,88,127,31,74, 
  /* [43][0][][] */ 4,6,20,10,-127,-58,30,-39, 
  /* [44][0][][] */ -127,-64,-1,-44,57,51,-98,-71, 
  /* [45][0][][] */ -70,54,-104,18,11,1,-40,127, 
  /* [46][0][][] */ -7,66,127,19,-14,-6,-76,41, 
  /* [47][0][][] */ -127,-115,-70,-41,89,46,-7,98, 
};
const TfArray<48, float> quant25_scale = { 48, { 0.0019792851526290178, 0.00099124573171138763, 0.0022635424975305796, 0.0025970160495489836, 0.0060591776855289936, 0.0011045144638046622, 0.0021475790999829769, 0.0028291859198361635, 0.0010090867290273309, 0.0039398921653628349, 0.0026263941545039415, 0.0022651441395282745, 0.001705188537016511, 0.0027176877483725548, 0.0032884920947253704, 0.0023171172942966223, 0.002188623184338212, 0.0011225136695429683, 0.0015996266156435013, 0.0035084018018096685, 0.0031455499120056629, 0.0031074327416718006, 0.0026163558941334486, 0.0022327459882944822, 0.0034279210958629847, 0.0020961842965334654, 0.0030165412463247776, 0.0018425452290102839, 0.0035069072619080544, 0.0018946503987535834, 0.00075103470589965582, 0.0025887335650622845, 0.0043653612956404686, 0.0033735611941665411, 0.0017665119376033545, 0.0028694933280348778, 0.0024109012447297573, 0.0012981784529983997, 0.0035026140976697206, 0.001755089033395052, 0.0015629767440259457, 0.0013885479420423508, 0.0033286386169493198, 0.0033288507256656885, 0.0035302687902003527, 0.0018702276283875108, 0.0007853919523768127, 0.0021568289957940578, } };
const TfLiteAffineQuantization quant25 = { (TfLiteFloatArray*)&quant25_scale, (TfLiteIntArray*)&g0::quant6_zero, 0 };
const MODEL_SECTION(EI_MODEL_SECTION) ALIGN(16) int32_t tensor_data26[8] = { 5497, 18811, 6269, 3769, -46, -12979, 7618, -4100, };
const TfArray<8, float> quant26_scale = { 8, { 0.00011200704466318712, 0.00012297896319068968, 0.0001575383503222838, 0.00022705586161464453, 0.00015146656369324774, 0.00013837132428307086, 7.3154427809640765e-05, 0.00012012758816126734, } };
const TfLiteAffineQuantization quant26 = { (TfLiteFloatArray*)&quant26_scale, (TfLiteIntArray*)&g0::quant8_zero, 0 };
const MODEL_SECTION(EI_MODEL_SECTION) ALIGN(16) int8_t tensor_data27[8*1*1*48] = { 
  /* [0][0][][] */ 31,-30,95,71,24,-44,15,7,-50,75,-32,12,-39,-85,57,30,-127,53,-40,101,-58,70,-24,-17,22,-27,70,-24,-20,47,-24,118,-51,-10,-22,-99,-91,-40,-17,-9,-15,79,-110,7,87,16,20,61, 
  /* [1][0][][] */ -61,-55,50,-19,-35,35,-26,-26,34,-36,12,-6,-13,12,-7,-3,-5,24,14,-15,-55,-25,-36,-29,27,-57,-36,-52,46,-70,-24,-117,-22,-63,-57,-71,-68,-116,-37,12,45,-16,41,-127,-47,-2,-10,-7, 
  /* [2][0][][] */ -59,63,-14,39,9,8,10,-42,30,-45,52,61,110,14,46,-88,74,-12,6,48,-24,-12,-1,127,-107,-34,4,-34,20,78,-1,-88,-15,1,0,-71,-45,8,-38,-25,98,-70,17,10,30,-121,9,-10, 
  /* [3][0][][] */ 78,-12,-52,15,72,-70,6,-117,-55,-5,-62,-105,-22,127,-6,-6,-59,-20,-57,-46,25,73,-23,-32,91,53,35,-67,37,-86,42,-47,55,60,100,-65,-25,9,-11,40,8,70,-74,17,-8,8,-8,25, 
  /* [4][0][][] */ -46,40,-19,67,103,-34,22,-37,-13,-3,-49,28,-50,-13,-11,-50,29,63,-24,-7,-28,11,-58,-66,32,-19,7,-28,15,-60,-18,46,-13,70,-76,-51,-66,-54,-38,7,71,-40,127,43,-2,78,-59,-40, 
  /* [5][0][][] */ 67,17,123,4,-5,17,48,27,127,-1,60,-5,48,43,28,-57,-22,43,36,-36,-52,-64,11,48,17,28,1,40,-48,-40,18,-34,-8,49,-10,51,46,-10,-28,-47,-1,59,35,49,-15,1,63,15, 
  /* [6][0][][] */ -17,-73,-51,4,28,3,1,21,-68,-23,87,38,92,76,-23,39,101,-111,-14,-18,-8,-39,-127,23,-116,74,-45,-16,-8,-51,57,-48,90,0,-46,-30,-65,21,47,6,49,-65,-15,-56,-88,8,-53,-2, 
  /* [7][0][][] */ 7,-39,-32,-38,21,118,6,8,21,-48,-119,-91,54,53,-58,-75,-41,21,120,0,-4,-86,44,-72,127,-32,-87,94,-24,-44,-27,-80,-62,87,39,114,52,-49,-37,-54,-33,-29,55,1,-5,-21,1,-80, 
};
const TfArray<8, float> quant27_scale = { 8, { 0.0047602993436157703, 0.0052266055718064308, 0.0066953795030713081, 0.009649873711168766, 0.0064373286440968513, 0.0058807814493775368, 0.0031090632546693087, 0.0051054223440587521, } };
const TfLiteAffineQuantization quant27 = { (TfLiteFloatArray*)&quant27_scale, (TfLiteIntArray*)&g0::quant8_zero, 0 };
const MODEL_SECTION(EI_MODEL_SECTION) ALIGN(16) int32_t tensor_data28[48] = { -2065, 1901, -145, 1309, 688, 9888, 1561, -4619, -2089, 141, -7963, -3, -3558, -11210, -3718, -24, -11998, 8837, -3640, 207, -2335, -2054, -1151, -1357, 18472, 42, 2430, -1535, -314, 451, -2800, -9628, -664, 9404, 69, 6718, -886, -910, 1175, -233, -2753, 97, 5708, 839, -2425, 10059, 1934, -1052, };
const TfArray<48, float> quant28_scale = { 48, { 0.00037072174018248916, 0.00013302627485245466, 0.00076078320853412151, 0.00018342929251957685, 0.000152032938785851, 0.00034880812745541334, 0.00018627216923050582, 0.00014684276538901031, 0.00042806399869732559, 0.00015257822815328836, 0.00036397998337633908, 0.00020606354519259185, 0.00018021996947936714, 0.00011731018457794562, 0.00018289187573827803, 0.00062652147607877851, 0.00019800454901997, 8.0232224718201905e-05, 0.00013101905642542988, 0.00076964963227510452, 0.00022355618420988321, 0.000285496556898579, 0.00017152463260572404, 0.0010629033204168081, 0.00037136333412490785, 0.00033928433549590409, 0.00023703579790890217, 0.00016621968825347722, 0.00030801852699369192, 0.00028163555543869734, 0.00034635423799045384, 0.000560032669454813, 0.0004317179846111685, 0.00014170995564199984, 0.00032001821091398597, 0.00016179261729121208, 0.00028309514163993299, 5.1479091780493036e-05, 0.00079499580897390842, 0.00076185772195458412, 0.00028809683863073587, 0.00084840611089020967, 0.00061594712315127254, 0.00029004176030866802, 0.00031155551550909877, 0.00011272617120994255, 0.00022828756482340395, 0.00030305367545224726, } };
const TfLiteAffineQuantization quant28 = { (TfLiteFloatArray*)&quant28_scale, (TfLiteIntArray*)&g0::quant6_zero, 0 };
const MODEL_SECTION(EI_MODEL_SECTION) ALIGN(16) int8_t tensor_data29[1*3*3*48] = { 
  /* [0][0][][] */ -31,-36,47,-16,127,8,-25,-8,-42,51,5,16,41,43,127,-30,13,-18,1,-23,-45,-6,-71,32,-127,80,14,-17,-32,42,-28,11,-43,-19,30,8,74,118,49,-14,57,19,-18,15,-107,-22,-25,-44, -6,-95,-76,-74,-80,15,25,2,30,-3,44,127,-15,63,-50,127,51,-20,78,-44,-51,-127,-80,72,-82,-87,12,127,-11,45,127,-3,-127,-127,-41,33,127,-127,122,17,19,-13,-26,-11,-54,-35,73,4, 31,-18,-14,127,50,14,-94,-1,-50,-42,-12,-12,79,-7,-42,-35,26,75,4,-22,22,6,-25,21,-43,-78,-19,39,-6,43,-59,-5,17,33,29,15,9,120,-127,12,29,-1,-12,33,-127,-4,-77,39, 
  /* [0][1][][] */ -118,-75,127,11,-20,-57,68,31,-2,88,32,19,43,52,117,26,23,-127,58,35,71,-8,69,-32,-38,-13,16,-35,22,51,44,83,40,-22,-7,127,9,91,-42,-117,4,80,-24,-70,45,-97,-72,-15, 127,-77,-70,-104,26,-127,127,127,127,8,127,-49,-127,14,-43,-42,127,-60,127,127,127,88,127,-127,-1,-27,85,2,127,109,-125,127,21,-79,127,-88,-65,97,-109,127,-127,-127,127,-127,106,-127,127,-106, 11,-117,14,87,8,-3,-67,18,-49,-127,-11,51,89,22,-36,39,27,33,27,6,4,-25,37,-19,-16,-2,-127,108,-45,10,96,26,-11,-32,-28,-40,62,-22,109,1,42,40,-51,20,90,-10,-72,127, 
  /* [0][2][][] */ 19,127,21,-58,101,-5,-60,-1,-35,12,-20,-12,27,62,79,4,4,-30,-8,-35,-4,25,7,28,-29,-45,15,-8,-58,-127,30,-6,25,13,-28,18,-59,127,-8,97,-3,15,-7,34,26,-1,-27,-48, 16,67,-38,1,24,-49,-11,48,53,7,-9,-50,-5,127,-66,-80,13,-58,86,-58,-30,104,-21,46,104,127,-6,77,-60,-104,-18,-16,90,-99,-97,-3,-67,-40,-40,-120,39,-21,-59,87,60,32,20,8, 14,117,-11,24,60,25,-56,13,-46,-20,-2,-4,47,18,-24,-6,2,32,-32,-17,-5,22,-6,17,-41,57,-54,-3,53,-97,11,-1,0,50,-10,-15,-45,115,15,1,13,2,-6,5,15,-6,-17,33, 
};
const TfArray<48, float> quant29_scale = { 48, { 0.015755673870444298, 0.0056536165066063404, 0.032333284616470337, 0.0077957445755600929, 0.0064614000730216503, 0.014824345707893372, 0.0079165669158101082, 0.0062408172525465488, 0.018192719668149948, 0.0064845746383070946, 0.015469148755073547, 0.0087577002122998238, 0.0076593486592173576, 0.0049856826663017273, 0.0077729043550789356, 0.026627162471413612, 0.0084151932969689369, 0.0034098695032298565, 0.0055683096870779991, 0.032710108906030655, 0.0095011377707123756, 0.012133602984249592, 0.0072897966019809246, 0.045173387974500656, 0.01578294113278389, 0.014419584535062313, 0.01007402129471302, 0.0070643369108438492, 0.013090787455439568, 0.011969511397182941, 0.014720054343342781, 0.023801388218998909, 0.018348013982176781, 0.006022673100233078, 0.013600773178040981, 0.0068761860020458698, 0.01203154306858778, 0.0021878613624721766, 0.033787321299314499, 0.032378952950239182, 0.012244115583598614, 0.036057259887456894, 0.026177752763032913, 0.012326775118708611, 0.013241109438240528, 0.0047908620908856392, 0.0097022214904427528, 0.012879781424999237, } };
const TfLiteAffineQuantization quant29 = { (TfLiteFloatArray*)&quant29_scale, (TfLiteIntArray*)&g0::quant6_zero, 3 };
const MODEL_SECTION(EI_MODEL_SECTION) ALIGN(16) int32_t tensor_data30[48] = { 6638, 2648, 28968, -3737, -1689, 8014, -563, 787, 4414, 141, 8056, 1809, 3824, 6012, 1602, 5992, 1959, 1657, -935, 6714, 988, 258, 669, 8670, 33933, 4354, 2642, -1183, -97, 7503, 6727, 11661, 7406, 4427, 3061, -1046, 1148, 2219, 18138, 5338, 1053, 7274, 20734, 3838, 7414, 1474, 3894, 1333, };
const TfArray<48, float> quant30_scale = { 48, { 0.00014348677359521389, 0.00023046258138492703, 4.3815889512188733e-05, 0.00016328279161825776, 0.00027463317383080721, 0.0001484649401390925, 0.00029482415993697941, 0.00055651721777394414, 0.00018904778698924929, 0.00025323146837763488, 0.00011336110037518665, 0.00022466391965281218, 0.00016909300757106394, 0.00015001845895312726, 0.00029327184893190861, 0.00015191198326647282, 0.00021613406715914607, 0.00024457572726532817, 0.00036317735794000328, 0.00014931333134882152, 0.00031852989923208952, 0.00042457788367755711, 0.00036813385668210685, 0.0001056674009305425, 4.725461985799484e-05, 0.00020837076590396464, 0.0002891586918849498, 0.00034522861824370921, 0.00047076170449145138, 0.00013208524615038186, 0.00012388007598929107, 9.055829286808148e-05, 0.00012271059677004814, 0.00017839243810158223, 0.00022969712154008448, 0.00022406529751606286, 0.00028458549058996141, 0.00020229416259098798, 5.9820817114086822e-05, 0.0001562301185913384, 0.0002303094370290637, 0.00012226658873260021, 6.0997437685728073e-05, 0.00022970128338783979, 0.00013973316526971757, 0.00038689607754349709, 0.00019520283967722207, 0.00021995048155076802, } };
const TfLiteAffineQuantization quant30 = { (TfLiteFloatArray*)&quant30_scale, (TfLiteIntArray*)&g0::quant6_zero, 0 };
const MODEL_SECTION(EI_MODEL_SECTION) ALIGN(16) int8_t tensor_data31[48*1*1*8] = { 
  /* [0][0][][] */ -24,18,47,-110,-75,-20,28,127, 
  /* [1][0][][] */ 85,12,-35,-4,-63,31,127,49, 
  /* [2][0][][] */ 18,123,-27,3,-41,105,1,-127, 
  /* [3][0][][] */ 47,-62,-52,108,-127,-46,32,-67, 
  /* [4][0][][] */ 58,-42,46,-10,-127,-8,58,12, 
  /* [5][0][][] */ -6,59,-16,-114,-127,2,-36,-8, 
  /* [6][0][][] */ 45,-7,20,35,85,-67,12,-127, 
  /* [7][0][][] */ 7,16,22,127,15,2,11,12, 
  /* [8][0][][] */ 27,32,4,-48,19,127,25,-18, 
  /* [9][0][][] */ 118,28,-30,-27,-101,-31,127,39, 
  /* [10][0][][] */ -5,66,-80,-30,19,127,100,-40, 
  /* [11][0][][] */ -31,-45,-127,104,-80,17,-5,76, 
  /* [12][0][][] */ -90,-84,61,33,27,-127,-49,31, 
  /* [13][0][][] */ 51,29,34,43,-62,127,19,-56, 
  /* [14][0][][] */ 23,-78,-4,-51,-31,-27,-127,79, 
  /* [15][0][][] */ -80,33,-23,-11,127,10,-93,-16, 
  /* [16][0][][] */ 68,78,-74,-127,35,115,64,22, 
  /* [17][0][][] */ -68,127,-74,57,-35,-1,30,-126, 
  /* [18][0][][] */ 36,-11,-67,127,-11,-43,-42,-49, 
  /* [19][0][][] */ 47,12,-22,15,-31,3,127,16, 
  /* [20][0][][] */ 45,-66,-91,127,53,-1,-17,-62, 
  /* [21][0][][] */ 11,51,127,-97,35,-34,27,-88, 
  /* [22][0][][] */ -68,-61,-127,68,-8,20,28,97, 
  /* [23][0][][] */ 76,28,28,40,-127,95,41,-15, 
  /* [24][0][][] */ 0,-9,-127,77,-12,31,28,85, 
  /* [25][0][][] */ 28,-36,-80,127,58,1,-34,-27, 
  /* [26][0][][] */ -61,38,127,-75,-9,-2,55,-23, 
  /* [27][0][][] */ -36,72,127,20,12,-10,68,22, 
  /* [28][0][][] */ -36,-127,19,-119,-32,35,-7,10, 
  /* [29][0][][] */ -44,-59,-13,53,-6,-127,-18,25, 
  /* [30][0][][] */ -118,90,127,-65,12,74,103,51, 
  /* [31][0][][] */ -53,52,89,-127,-39,12,38,51, 
  /* [32][0][][] */ -73,75,78,-127,42,69,21,58, 
  /* [33][0][][] */ 16,127,-62,44,44,50,-125,-21, 
  /* [34][0][][] */ 81,29,78,-94,-97,-127,12,-47, 
  /* [35][0][][] */ 111,-5,27,127,62,-56,50,-110, 
  /* [36][0][][] */ 18,73,123,-107,26,0,18,-127, 
  /* [37][0][][] */ -59,-47,124,42,29,-127,108,-38, 
  /* [38][0][][] */ 62,-12,23,27,-70,-67,127,1, 
  /* [39][0][][] */ 54,-102,-17,9,-127,4,73,104, 
  /* [40][0][][] */ -29,82,-127,103,-41,60,-99,70, 
  /* [41][0][][] */ -76,5,-50,17,127,11,-72,10, 
  /* [42][0][][] */ -91,67,-2,-15,127,24,-112,-74, 
  /* [43][0][][] */ 127,100,-40,64,28,-51,59,76, 
  /* [44][0][][] */ -22,12,32,-12,68,-127,30,-32, 
  /* [45][0][][] */ -4,-58,127,71,-31,-9,-100,13, 
  /* [46][0][][] */ 49,-119,-82,127,-66,-2,10,-2, 
  /* [47][0][][] */ -57,-25,50,-8,127,20,-100,-14, 
};
const TfArray<48, float> quant31_scale = { 48, { 0.0024994006380438805, 0.0040144352242350578, 0.00076323037501424551, 0.0028442281764000654, 0.0047838441096246243, 0.0025861156173050404, 0.0051355515606701374, 0.0096939913928508759, 0.003293029498308897, 0.0044110473245382309, 0.0019746406469494104, 0.0039134281687438488, 0.002945436630398035, 0.0026131763588637114, 0.0051085120067000389, 0.0026461596135050058, 0.0037648463621735573, 0.0042602727189660072, 0.0063261981122195721, 0.0026008938439190388, 0.0055484827607870102, 0.0073957359418272972, 0.0064125354401767254, 0.0018406239105388522, 0.00082312972517684102, 0.0036296171601861715, 0.0050368644297122955, 0.0060135484673082829, 0.0082002133131027222, 0.0023007972631603479, 0.0021578711457550526, 0.0015774378553032875, 0.0021374998614192009, 0.0031074236612766981, 0.004001101478934288, 0.0039030006155371666, 0.0049572037532925606, 0.0035237686242908239, 0.0010420207399874926, 0.0027213774155825377, 0.0040117674507200718, 0.0021297656930983067, 0.0010625163558870554, 0.004001174122095108, 0.0024340164382010698, 0.0067393551580607891, 0.0034002445172518492, 0.0038313244003802538, } };
const TfLiteAffineQuantization quant31 = { (TfLiteFloatArray*)&quant31_scale, (TfLiteIntArray*)&g0::quant6_zero, 0 };
const MODEL_SECTION(EI_MODEL_SECTION) ALIGN(16) int32_t tensor_data32[8] = { -13260, 3878, -15798, 4470, 4618, -2636, 10077, 2450, };
const TfArray<8, float> quant32_scale = { 8, { 0.00013838006998412311, 0.0001021359785227105, 0.00010215718066319823, 7.0757589128334075e-05, 0.00014183935127221048, 0.00010359224688727409, 0.00011100692790932953, 0.00011903555423486978, } };
const TfLiteAffineQuantization quant32 = { (TfLiteFloatArray*)&quant32_scale, (TfLiteIntArray*)&g0::quant8_zero, 0 };
const MODEL_SECTION(EI_MODEL_SECTION) ALIGN(16) int8_t tensor_data33[8*1*1*48] = { 
  /* [0][0][][] */ 44,108,-35,66,-10,-7,-11,9,61,-56,9,-25,7,12,-42,-49,3,-20,40,43,-53,-27,-39,9,15,22,18,3,17,20,-22,12,-67,8,111,-127,-27,27,1,105,-31,19,18,-7,-18,29,16,-47, 
  /* [1][0][][] */ 0,-52,25,63,-27,-16,-28,-18,29,-57,82,46,18,13,-55,-83,127,29,20,7,-71,30,29,-4,-47,-98,-42,-48,-10,-50,46,-38,-15,-40,-40,9,7,-10,81,-45,18,42,-69,43,81,64,16,34, 
  /* [2][0][][] */ 78,-18,-14,-18,95,102,69,80,-16,4,0,-34,-4,42,44,43,-13,-40,55,-54,-43,-45,-54,45,-107,-103,127,41,60,-72,-61,-1,-126,89,115,22,-8,-2,-12,9,19,63,-3,-58,-35,23,44,-42, 
  /* [3][0][][] */ 80,-22,46,-14,118,111,17,43,-43,-51,-3,44,-120,42,64,-2,-11,-1,73,-127,-105,4,32,86,6,-15,51,35,50,-66,0,-8,-116,61,-65,-103,16,-45,68,-74,46,-69,-87,-33,-38,37,-3,47, 
  /* [4][0][][] */ 33,48,-21,-36,-15,-14,-21,-17,-4,-12,-14,-10,-26,-23,72,49,-42,-20,-35,33,23,-13,-12,-8,-46,-44,-4,53,-16,8,-20,24,-33,-15,19,-127,-8,17,5,55,15,-13,-17,-20,34,13,82,-23, 
  /* [5][0][][] */ 67,54,-85,63,-1,6,-10,21,-81,-68,-64,-27,27,23,39,47,40,-51,52,127,-72,-50,-44,54,28,-26,-53,56,20,15,-50,4,-3,2,-56,0,-22,5,-21,77,34,66,23,-45,119,17,30,-55, 
  /* [6][0][][] */ -42,-75,30,-47,-42,-51,-64,-65,-27,-68,-119,40,-68,-53,98,86,-127,12,37,-9,3,60,62,6,-13,-5,-71,89,-71,-30,43,77,19,-55,97,37,29,31,4,-88,-24,-67,-27,22,-25,-26,-30,67, 
  /* [7][0][][] */ 62,8,-5,41,17,10,8,1,84,-7,-6,-20,57,11,3,-23,-57,-12,-24,15,12,-24,-22,-29,72,-127,10,-5,1,90,-21,23,-80,21,-59,-44,-2,28,36,24,9,70,-12,-15,-39,37,48,-20, 
};
const TfArray<8, float> quant33_scale = { 8, { 0.005881152581423521, 0.004340779036283493, 0.0043416800908744335, 0.0030071975197643042, 0.0060281720943748951, 0.004402670543640852, 0.0047177942469716072, 0.0050590108148753643, } };
const TfLiteAffineQuantization quant33 = { (TfLiteFloatArray*)&quant33_scale, (TfLiteIntArray*)&g0::quant8_zero, 0 };
const MODEL_SECTION(EI_MODEL_SECTION) ALIGN(16) int32_t tensor_data34[48] = { 3667, 8246, 2989, 1457, -347, -1588, 9595, 6304, 3848, -10774, -1060, 22, 5854, 5139, 20424, 16285, -1539, -809, 5498, 6590, 12905, -902, 2045, -309, 5529, 1898, 5429, 20161, 5316, 10448, -654, 2484, -2126, -5356, -2456, 2932, 285, 870, 493, 3527, 8292, 2716, -10080, 875, 4262, -166, 6495, 460, };
const TfArray<48, float> quant34_scale = { 48, { 6.2366045312955976e-05, 0.00013430938997771591, 0.00069735542638227344, 4.8032306949608028e-05, 0.00065613968763500452, 0.00064320873934775591, 0.00011290301335975528, 0.00016085556126199663, 5.0465132517274469e-05, 0.00014535673835780472, 0.00038634639349766076, 0.00021057372214272618, 0.0001803515333449468, 0.00014615482359658927, 6.1196515162009746e-05, 5.8588026149664074e-05, 0.00010900976485572755, 0.00054565118625760078, 5.0234910304425284e-05, 6.8843401095364243e-05, 6.298875086940825e-05, 0.00091246014926582575, 0.00083020044257864356, 0.00039188482332974672, 5.176026388653554e-05, 0.00013143486285116524, 8.5568070062436163e-05, 0.00011427926801843569, 0.00019904668442904949, 0.00014902616385370493, 0.00040078509482555091, 0.00021886486501898617, 0.00010266908793710172, 0.00026665235054679215, 7.3232644353993237e-05, 5.2229119319235906e-05, 0.00030816407524980605, 0.00020945543656125665, 8.6095038568601012e-05, 0.0001934595056809485, 8.1673526437953115e-05, 0.00029741277103312314, 0.00011326521780574694, 0.00046984353684820235, 9.6286312327720225e-05, 0.0002275730948895216, 0.0001082209128071554, 0.0012826079037040472, } };
const TfLiteAffineQuantization quant34 = { (TfLiteFloatArray*)&quant34_scale, (TfLiteIntArray*)&g0::quant6_zero, 0 };
const MODEL_SECTION(EI_MODEL_SECTION) ALIGN(16) int8_t tensor_data35[1*3*3*48] = { 
  /* [0][0][][] */ -9,-84,-127,127,-78,17,-86,-85,62,56,127,-52,-1,-8,-106,-15,109,-80,72,-34,27,-91,-39,-41,127,94,7,-117,-1,-31,53,80,60,82,74,31,95,56,53,12,-127,-5,117,20,-13,48,-2,-90, 86,-10,24,85,-125,51,-49,7,113,127,79,66,-1,-64,-127,-80,100,-34,127,-127,-74,127,127,32,99,73,49,-76,-51,-26,-90,105,78,127,85,105,-8,85,22,-76,-75,-53,60,-49,-21,66,-17,96, 122,2,70,80,-77,18,-24,-5,46,80,59,-15,-94,-1,-44,-86,46,65,58,-82,-29,-24,-94,42,57,90,14,-8,-1,-61,32,25,43,96,14,58,-2,-16,34,-9,-69,-3,50,8,13,30,8,2, 
  /* [0][1][][] */ 30,-127,121,100,95,-70,-127,-127,127,74,60,-59,10,-10,-103,-70,113,127,92,-106,-36,105,33,-127,87,87,125,-127,0,-79,-81,95,100,-4,107,60,31,124,93,6,-42,-16,87,75,-119,127,-103,98, 100,-1,3,104,127,-127,-96,-6,115,86,52,55,-9,-127,-73,-127,127,52,122,-105,-127,-112,-125,46,66,127,127,-109,-127,-127,127,127,127,-4,127,127,-10,123,127,-127,7,-127,127,-77,-127,109,-127,-127, 127,-4,-117,89,86,-62,-44,5,35,84,34,-18,-127,9,-47,12,55,-90,65,-78,-81,0,62,66,55,85,-9,-25,-16,-87,-34,10,44,1,58,89,-11,-7,79,-3,-38,12,77,4,-60,-30,-44,9, 
  /* [0][2][][] */ 22,-76,-4,84,-5,64,-68,-72,66,23,29,65,0,-12,-23,-58,47,-40,94,-45,-8,7,6,-91,74,43,91,-62,19,-64,18,25,70,-53,102,25,-127,-59,27,4,2,-11,41,-127,-83,36,-75,-11, 27,1,-12,101,5,99,-51,-2,46,75,0,-127,5,-117,8,-70,61,-6,81,-84,-49,-3,-34,18,19,70,105,-99,-48,-75,-18,28,63,-69,66,33,11,-31,83,-47,116,-36,93,108,-93,46,-120,12, -20,-14,-4,69,-25,43,-50,9,24,64,-29,50,-71,1,1,-26,25,12,20,-49,-77,17,7,41,-6,47,34,-32,0,-82,9,22,13,-29,30,31,-2,-127,40,12,53,16,13,-2,-82,-45,-10,2, 
};
const TfArray<48, float> quant35_scale = { 48, { 0.0026505568530410528, 0.0057081487029790878, 0.029637604951858521, 0.002041372936218977, 0.027885936200618744, 0.027336372062563896, 0.0047983778640627861, 0.00683636125177145, 0.0021447681356221437, 0.0061776614747941494, 0.016419721767306328, 0.0089493831619620323, 0.007664940319955349, 0.0062115797773003578, 0.0026008517015725374, 0.002489991020411253, 0.0046329149045050144, 0.023190174251794815, 0.0021349836606532335, 0.0029258446302264929, 0.0026770217809826136, 0.038779556751251221, 0.035283517092466354, 0.016655104234814644, 0.0021998111624270678, 0.0055859815329313278, 0.003636642824858427, 0.0048568686470389366, 0.0084594842046499252, 0.0063336119055747986, 0.017033366486430168, 0.0093017565086483955, 0.0043634362518787384, 0.011332725174725056, 0.003112387377768755, 0.0022197375074028969, 0.013096973299980164, 0.0089018559083342552, 0.0036590390373021364, 0.0082220286130905151, 0.0034711249172687531, 0.01264004223048687, 0.0048137716948986053, 0.019968349486589432, 0.0040921680629253387, 0.0096718566492199898, 0.0045993886888027191, 0.054510835558176041, } };
const TfLiteAffineQuantization quant35 = { (TfLiteFloatArray*)&quant35_scale, (TfLiteIntArray*)&g0::quant6_zero, 3 };
const MODEL_SECTION(EI_MODEL_SECTION) ALIGN(16) int32_t tensor_data36[48] = { 9070, 3470, 10692, 2744, 4572, 3347, -3624, 3558, 2099, -3101, -2690, 6679, -2134, -4022, 8031, 1458, -1870, 462, -1723, 2798, 500, 4630, -806, -2174, -288, -4038, 2383, -1695, 3394, 6289, -32, 1446, 6026, 8335, 6664, 3496, 4705, -4567, 249, 4700, -1004, -3032, 3201, 4329, 904, -6329, -9507, 5123, };
const TfArray<48, float> quant36_scale = { 48, { 0.00055854982929304242, 0.0006610209820792079, 0.00011090860789408907, 0.00077542639337480068, 0.00037215440534055233, 0.00055027758935466409, 0.0022994833998382092, 0.0012814124347642064, 0.0010665369918569922, 0.00065680767875164747, 0.00015955102571751922, 0.00064102571923285723, 0.00051180820446461439, 0.0012812042841687799, 0.00074497115565463901, 0.0016960100037977099, 0.00097020872635766864, 0.00046509402454830706, 0.0013464163057506084, 0.0021125741768628359, 0.00099146331194788218, 0.00033696336322464049, 0.00019298026745673269, 0.00042501129792071879, 0.00085774745093658566, 0.00087273673852905631, 0.0010952745797112584, 0.0004483965749386698, 0.0012376455124467611, 0.00080288638127967715, 0.00041354441782459617, 0.00059870624681934714, 0.00098757667001336813, 0.00042039633262902498, 0.00047842826461419463, 0.00051678635645657778, 0.00075172650394961238, 0.0016111081931740046, 0.00055963883642107248, 0.00061008176999166608, 0.0017629263456910849, 0.00065780425211414695, 0.0008803712553344667, 0.00024199213657993823, 0.0014297850430011749, 0.00077851529931649566, 0.00068141939118504524, 0.00024265036336146295, } };
const TfLiteAffineQuantization quant36 = { (TfLiteFloatArray*)&quant36_scale, (TfLiteIntArray*)&g0::quant6_zero, 0 };
const MODEL_SECTION(EI_MODEL_SECTION) ALIGN(16) int8_t tensor_data37[48*1*1*8] = { 
  /* [0][0][][] */ -117,-79,36,-127,-67,0,6,-12, 
  /* [1][0][][] */ -127,-9,89,4,-60,36,5,3, 
  /* [2][0][][] */ 24,-15,18,127,36,-50,-29,-5, 
  /* [3][0][][] */ -122,-101,-14,-5,57,127,-45,-57, 
  /* [4][0][][] */ -5,-31,-8,-1,-8,6,-127,-68, 
  /* [5][0][][] */ 0,-43,-15,0,-9,10,-127,-66, 
  /* [6][0][][] */ 127,11,20,-13,-69,12,6,-6, 
  /* [7][0][][] */ -127,-30,-12,18,67,9,2,16, 
  /* [8][0][][] */ 26,42,-12,-2,-25,-127,35,19, 
  /* [9][0][][] */ 73,25,-19,7,-25,16,-10,127, 
  /* [10][0][][] */ 118,-7,-127,20,-79,-3,27,108, 
  /* [11][0][][] */ -127,76,-4,-58,69,-89,-16,29, 
  /* [12][0][][] */ 127,-31,-101,-3,53,-27,2,-45, 
  /* [13][0][][] */ 127,2,16,-7,-16,16,11,-10, 
  /* [14][0][][] */ -127,-57,58,-51,52,-51,-40,-111, 
  /* [15][0][][] */ 35,89,0,-12,-2,-127,-25,-3, 
  /* [16][0][][] */ -10,-56,13,1,10,127,7,4, 
  /* [17][0][][] */ 21,-101,-54,2,-39,127,-48,-21, 
  /* [18][0][][] */ 36,-17,-15,-3,-15,14,127,-11, 
  /* [19][0][][] */ -8,29,3,-127,-9,27,-4,-6, 
  /* [20][0][][] */ -47,-32,60,4,60,62,-19,-127, 
  /* [21][0][][] */ -39,8,39,-24,-15,14,-127,-94, 
  /* [22][0][][] */ 69,-8,18,127,-1,-24,52,39, 
  /* [23][0][][] */ 127,-48,-111,-4,44,-20,7,28, 
  /* [24][0][][] */ -48,43,36,33,15,-2,-127,-104, 
  /* [25][0][][] */ 127,14,-86,1,23,-10,10,26, 
  /* [26][0][][] */ 7,42,-30,-127,-25,22,-2,1, 
  /* [27][0][][] */ 121,11,-127,-13,-117,12,26,82, 
  /* [28][0][][] */ -127,-16,-24,17,54,8,2,30, 
  /* [29][0][][] */ -16,-121,-21,-127,4,37,-3,-27, 
  /* [30][0][][] */ 3,69,127,27,45,-82,107,28, 
  /* [31][0][][] */ -75,-13,-127,26,6,-40,106,113, 
  /* [32][0][][] */ -2,-127,5,-109,-10,6,-9,-20, 
  /* [33][0][][] */ 8,-115,-22,-127,-20,8,-10,2, 
  /* [34][0][][] */ -28,-40,29,-98,35,-44,127,74, 
  /* [35][0][][] */ -127,8,42,10,-102,-17,50,77, 
  /* [36][0][][] */ -127,25,80,-9,-18,-14,2,-11, 
  /* [37][0][][] */ 127,9,-1,12,-66,14,6,16, 
  /* [38][0][][] */ -92,0,111,47,106,-49,93,127, 
  /* [39][0][][] */ -127,-6,82,-19,-82,11,-5,-1, 
  /* [40][0][][] */ 5,45,41,-21,15,-16,127,55, 
  /* [41][0][][] */ 127,-23,-76,-14,61,6,7,-5, 
  /* [42][0][][] */ -7,-127,23,-2,10,4,-9,-14, 
  /* [43][0][][] */ 8,93,123,-33,44,-127,76,3, 
  /* [44][0][][] */ 7,-20,1,104,0,-127,-4,7, 
  /* [45][0][][] */ 127,-21,55,5,-62,102,7,3, 
  /* [46][0][][] */ 2,103,-18,108,-4,127,46,27, 
  /* [47][0][][] */ -14,35,8,-36,23,-40,127,72, 
};
const TfArray<48, float> quant37_scale = { 48, { 0.0061690579168498516, 0.0073008290491998196, 0.0012249607825651765, 0.0085644116625189781, 0.0041103623807430267, 0.0060776933096349239, 0.025397280231118202, 0.01415291428565979, 0.011779663152992725, 0.0072542941197752953, 0.0017622053856030107, 0.0070799859240651131, 0.0056528071872889996, 0.014150615781545639, 0.0082280403003096581, 0.01873205229640007, 0.010715738870203495, 0.0051368596032261848, 0.014870868064463139, 0.023332910612225533, 0.010950490832328796, 0.0037216851487755775, 0.0021314239129424095, 0.0046941549517214298, 0.0094736292958259583, 0.0096391821280121803, 0.012097063474357128, 0.0049524400383234024, 0.013669518753886223, 0.0088677005842328072, 0.0045675057917833328, 0.0066125765442848206, 0.01090756431221962, 0.0046431836672127247, 0.0052841333672404289, 0.0057077901437878609, 0.0083026513457298279, 0.017794329673051834, 0.0061810859479010105, 0.006738217081874609, 0.019471127539873123, 0.0072653009556233883, 0.0097235040739178658, 0.0026727491058409214, 0.015791656449437141, 0.0085985278710722923, 0.00752612529322505, 0.0026800190098583698, } };
const TfLiteAffineQuantization quant37 = { (TfLiteFloatArray*)&quant37_scale, (TfLiteIntArray*)&g0::quant6_zero, 0 };
const MODEL_SECTION(EI_MODEL_SECTION) ALIGN(16) int32_t tensor_data38[8] = { 4397, -4976, -146, 2196, 2655, 688, -2759, 3027, };
const TfArray<8, float> quant38_scale = { 8, { 7.5561358244158328e-05, 0.00011322855425532907, 9.5601579232607037e-05, 4.352414543973282e-05, 0.00013334919640328735, 0.00021650605776812881, 8.5473184299189597e-05, 0.00016788764332886785, } };
const TfLiteAffineQuantization quant38 = { (TfLiteFloatArray*)&quant38_scale, (TfLiteIntArray*)&g0::quant8_zero, 0 };
const MODEL_SECTION(EI_MODEL_SECTION) ALIGN(16) int8_t tensor_data39[8*1*1*8] = { 
  /* [0][0][][] */ -22,-3,-55,-39,-31,45,-127,-3, 
  /* [1][0][][] */ 14,103,-2,127,5,-9,-8,-31, 
  /* [2][0][][] */ 127,-4,-29,-44,-57,40,94,-44, 
  /* [3][0][][] */ 13,-127,43,-107,18,-107,31,65, 
  /* [4][0][][] */ 113,11,-79,0,38,-17,-127,-55, 
  /* [5][0][][] */ 7,-37,4,42,5,-127,1,5, 
  /* [6][0][][] */ 127,-30,118,-5,109,-33,-8,4, 
  /* [7][0][][] */ -127,-13,-94,-3,-102,-5,30,0, 
};
const TfArray<4, int> tensor_dimension39 = { 4, { 8,1,1,8 } };
const TfArray<8, float> quant39_scale = { 8, { 0.0032113576307892799, 0.0048122135922312737, 0.0040630670264363289, 0.0018497761338949203, 0.0056673409417271614, 0.0092015070840716362, 0.003632610198110342, 0.0071352249942719936, } };
const TfLiteAffineQuantization quant39 = { (TfLiteFloatArray*)&quant39_scale, (TfLiteIntArray*)&g0::quant8_zero, 0 };
const MODEL_SECTION(EI_MODEL_SECTION) ALIGN(16) int32_t tensor_data40[8] = { -12014, 11847, -127, -5189, 3, -12981, 189, 163, };
const TfArray<8, float> quant40_scale = { 8, { 0.00030695227906107903, 0.00039438952808268368, 0.00025798092246986926, 0.00041053583845496178, 0.00024346278223674744, 0.00033380510285496712, 0.0012870145728811622, 0.0022851563990116119, } };
const TfLiteAffineQuantization quant40 = { (TfLiteFloatArray*)&quant40_scale, (TfLiteIntArray*)&g0::quant8_zero, 0 };
const MODEL_SECTION(EI_MODEL_SECTION) ALIGN(16) int8_t tensor_data41[1*3*3*8] = { 
  /* [0][0][][] */ -1,-5,28,14,9,-11,9,34, 12,13,-44,127,-27,-9,-4,31, -6,-3,-21,15,-6,-5,-5,26, 
  /* [0][1][][] */ 6,-14,127,-36,127,5,-112,42, 127,-127,-103,-5,-104,127,-15,-127, -27,-7,30,-40,-7,7,127,42, 
  /* [0][2][][] */ 8,-1,27,-2,20,2,16,39, 1,7,-31,-7,-22,7,-10,-105, -10,4,-1,-11,-7,3,-6,41, 
};
const TfArray<4, int> tensor_dimension41 = { 4, { 1,3,3,8 } };
const TfArray<8, float> quant41_scale = { 8, { 0.013045472092926502, 0.016761554405093193, 0.010964188724756241, 0.017447773367166519, 0.010347167961299419, 0.014186716638505459, 0.054698117077350616, 0.097119145095348358, } };
const TfLiteAffineQuantization quant41 = { (TfLiteFloatArray*)&quant41_scale, (TfLiteIntArray*)&g0::quant8_zero, 3 };
const MODEL_SECTION(EI_MODEL_SECTION) ALIGN(16) int32_t tensor_data42[8] = { 13680, 8158, -37, 21477, 2358, 5971, 89210, 6050, };
const TfArray<8, float> quant42_scale = { 8, { 0.00018546103092376143, 0.00026036277995444834, 0.00021613284479826689, 0.00012581933697219938, 0.00031392194796353579, 0.00040197675116360188, 1.1623861610132735e-05, 2.4190196199924685e-05, } };
const TfLiteAffineQuantization quant42 = { (TfLiteFloatArray*)&quant42_scale, (TfLiteIntArray*)&g0::quant8_zero, 0 };
const MODEL_SECTION(EI_MODEL_SECTION) ALIGN(16) int8_t tensor_data43[8*3*3*1] = { 
  /* [0][0][][] */ -57, 50, 10, 
  /* [0][1][][] */ -127, 121, 1, 
  /* [0][2][][] */ -43, 46, 0, 
  /* [1][0][][] */ 58, 127, 35, 
  /* [1][1][][] */ -68, -79, -44, 
  /* [1][2][][] */ 7, -41, 5, 
  /* [2][0][][] */ 31, 28, -46, 
  /* [2][1][][] */ 53, 69, -127, 
  /* [2][2][][] */ 21, 32, -59, 
  /* [3][0][][] */ 42, 52, 20, 
  /* [3][1][][] */ 53, 74, 26, 
  /* [3][2][][] */ -81, -127, -57, 
  /* [4][0][][] */ 3, -54, 46, 
  /* [4][1][][] */ 15, -127, 111, 
  /* [4][2][][] */ 4, -37, 32, 
  /* [5][0][][] */ 2, -56, 1, 
  /* [5][1][][] */ 0, 127, 2, 
  /* [5][2][][] */ 1, -76, -1, 
  /* [6][0][][] */ -22, -92, -1, 
  /* [6][1][][] */ -31, -127, -4, 
  /* [6][2][][] */ -14, -42, -5, 
  /* [7][0][][] */ 42, -127, 17, 
  /* [7][1][][] */ -14, -10, -20, 
  /* [7][2][][] */ -22, 61, -17, 
};
const TfArray<4, int> tensor_dimension43 = { 4, { 8,3,3,1 } };
const TfArray<8, float> quant43_scale = { 8, { 0.047292560338973999, 0.066392503678798676, 0.055113870650529861, 0.03208392858505249, 0.080050088465213776, 0.10250406712293625, 0.0029640845023095608, 0.0061684995889663696, } };
const TfLiteAffineQuantization quant43 = { (TfLiteFloatArray*)&quant43_scale, (TfLiteIntArray*)&g0::quant8_zero, 0 };
const TfArray<4, int> tensor_dimension44 = { 4, { 1,80,80,8 } };
const TfArray<1, float> quant44_scale = { 1, { 0.023529412224888802, } };
const TfLiteAffineQuantization quant44 = { (TfLiteFloatArray*)&quant44_scale, (TfLiteIntArray*)&g0::quant0_zero, 0 };
const TfArray<1, float> quant46_scale = { 1, { 0.075983583927154541, } };
const TfArray<1, int> quant46_zero = { 1, { 38 } };
const TfLiteAffineQuantization quant46 = { (TfLiteFloatArray*)&quant46_scale, (TfLiteIntArray*)&quant46_zero, 0 };
const TfArray<1, float> quant47_scale = { 1, { 0.090540535748004913, } };
const TfArray<1, int> quant47_zero = { 1, { 11 } };
const TfLiteAffineQuantization quant47 = { (TfLiteFloatArray*)&quant47_scale, (TfLiteIntArray*)&quant47_zero, 0 };
const TfArray<4, int> tensor_dimension48 = { 4, { 1,80,80,48 } };
const TfArray<4, int> tensor_dimension49 = { 4, { 1,81,81,48 } };
const TfArray<4, int> tensor_dimension50 = { 4, { 1,40,40,48 } };
const TfArray<4, int> tensor_dimension51 = { 4, { 1,40,40,8 } };
const TfArray<1, float> quant51_scale = { 1, { 0.057408470660448074, } };
const TfArray<1, int> quant51_zero = { 1, { 6 } };
const TfLiteAffineQuantization quant51 = { (TfLiteFloatArray*)&quant51_scale, (TfLiteIntArray*)&quant51_zero, 0 };
const TfArray<1, float> quant54_scale = { 1, { 0.13314056396484375, } };
const TfArray<1, int> quant54_zero = { 1, { 18 } };
const TfLiteAffineQuantization quant54 = { (TfLiteFloatArray*)&quant54_scale, (TfLiteIntArray*)&quant54_zero, 0 };
const TfArray<1, float> quant55_scale = { 1, { 0.12785039842128754, } };
const TfArray<1, int> quant55_zero = { 1, { 9 } };
const TfLiteAffineQuantization quant55 = { (TfLiteFloatArray*)&quant55_scale, (TfLiteIntArray*)&quant55_zero, 0 };
const TfArray<4, int> tensor_dimension57 = { 4, { 1,41,41,48 } };
const TfArray<4, int> tensor_dimension58 = { 4, { 1,20,20,48 } };
const TfArray<4, int> tensor_dimension59 = { 4, { 1,20,20,8 } };
const TfArray<1, float> quant59_scale = { 1, { 0.053664233535528183, } };
const TfArray<1, int> quant59_zero = { 1, { 15 } };
const TfLiteAffineQuantization quant59 = { (TfLiteFloatArray*)&quant59_scale, (TfLiteIntArray*)&quant59_zero, 0 };
const TfArray<1, float> quant60_scale = { 1, { 0.023191053420305252, } };
const TfLiteAffineQuantization quant60 = { (TfLiteFloatArray*)&quant60_scale, (TfLiteIntArray*)&g0::quant0_zero, 0 };
const TfArray<1, float> quant62_scale = { 1, { 0.054269902408123016, } };
const TfArray<1, int> quant62_zero = { 1, { -24 } };
const TfLiteAffineQuantization quant62 = { (TfLiteFloatArray*)&quant62_scale, (TfLiteIntArray*)&quant62_zero, 0 };
const TfArray<1, float> quant63_scale = { 1, { 0.06902892142534256, } };
const TfArray<1, int> quant63_zero = { 1, { -4 } };
const TfLiteAffineQuantization quant63 = { (TfLiteFloatArray*)&quant63_scale, (TfLiteIntArray*)&quant63_zero, 0 };
const TfArray<1, float> quant66_scale = { 1, { 0.064336828887462616, } };
const TfArray<1, int> quant66_zero = { 1, { 24 } };
const TfLiteAffineQuantization quant66 = { (TfLiteFloatArray*)&quant66_scale, (TfLiteIntArray*)&quant66_zero, 0 };
const TfArray<1, float> quant67_scale = { 1, { 0.091168045997619629, } };
const TfArray<1, int> quant67_zero = { 1, { 16 } };
const TfLiteAffineQuantization quant67 = { (TfLiteFloatArray*)&quant67_scale, (TfLiteIntArray*)&quant67_zero, 0 };
const TfArray<4, int> tensor_dimension69 = { 4, { 1,20,20,32 } };
const TfArray<1, float> quant69_scale = { 1, { 0.03588741272687912, } };
const TfLiteAffineQuantization quant69 = { (TfLiteFloatArray*)&quant69_scale, (TfLiteIntArray*)&g0::quant0_zero, 0 };
const TfArray<4, int> tensor_dimension70 = { 4, { 1,20,20,3 } };
const TfArray<1, float> quant70_scale = { 1, { 0.15645168721675873, } };
const TfArray<1, int> quant70_zero = { 1, { 1 } };
const TfLiteAffineQuantization quant70 = { (TfLiteFloatArray*)&quant70_scale, (TfLiteIntArray*)&quant70_zero, 0 };
const TfArray<1, float> quant71_scale = { 1, { 0.00390625, } };
const TfLiteAffineQuantization quant71 = { (TfLiteFloatArray*)&quant71_scale, (TfLiteIntArray*)&g0::quant0_zero, 0 };
const TfLiteConvParams opdata0 = { kTfLitePaddingSame, 2,2, kTfLiteActRelu6, 1,1 };
const TfArray<3, int> inputs0 = { 3, { 0,43,42 } };
const TfArray<1, int> outputs0 = { 1, { 44 } };
const TfLiteDepthwiseConvParams opdata1 = { kTfLitePaddingSame, 1,1, 1, kTfLiteActRelu6, 1,1 };
const TfArray<3, int> inputs1 = { 3, { 44,41,40 } };
const TfArray<1, int> outputs1 = { 1, { 45 } };
const TfLiteConvParams opdata2 = { kTfLitePaddingSame, 1,1, kTfLiteActNone, 1,1 };
const TfArray<3, int> inputs2 = { 3, { 45,39,38 } };
const TfArray<1, int> outputs2 = { 1, { 46 } };
const TfLiteAddParams opdata3 = { kTfLiteActNone };
const TfArray<2, int> inputs3 = { 2, { 44,46 } };
const TfArray<1, int> outputs3 = { 1, { 47 } };
const TfLiteConvParams opdata4 = { kTfLitePaddingSame, 1,1, kTfLiteActRelu6, 1,1 };
const TfArray<3, int> inputs4 = { 3, { 47,37,36 } };
const TfArray<1, int> outputs4 = { 1, { 48 } };
const TfArray<2, int> inputs5 = { 2, { 48,1 } };
const TfArray<1, int> outputs5 = { 1, { 49 } };
const TfLiteDepthwiseConvParams opdata6 = { kTfLitePaddingValid, 2,2, 1, kTfLiteActRelu6, 1,1 };
const TfArray<3, int> inputs6 = { 3, { 49,35,34 } };
const TfArray<1, int> outputs6 = { 1, { 50 } };
const TfLiteConvParams opdata7 = { kTfLitePaddingSame, 1,1, kTfLiteActNone, 1,1 };
const TfArray<3, int> inputs7 = { 3, { 50,33,32 } };
const TfArray<1, int> outputs7 = { 1, { 51 } };
const TfLiteConvParams opdata8 = { kTfLitePaddingSame, 1,1, kTfLiteActRelu6, 1,1 };
const TfArray<3, int> inputs8 = { 3, { 51,31,30 } };
const TfArray<1, int> outputs8 = { 1, { 52 } };
const TfLiteDepthwiseConvParams opdata9 = { kTfLitePaddingSame, 1,1, 1, kTfLiteActRelu6, 1,1 };
const TfArray<3, int> inputs9 = { 3, { 52,29,28 } };
const TfArray<1, int> outputs9 = { 1, { 53 } };
const TfLiteConvParams opdata10 = { kTfLitePaddingSame, 1,1, kTfLiteActNone, 1,1 };
const TfArray<3, int> inputs10 = { 3, { 53,27,26 } };
const TfArray<1, int> outputs10 = { 1, { 54 } };
const TfLiteAddParams opdata11 = { kTfLiteActNone };
const TfArray<2, int> inputs11 = { 2, { 51,54 } };
const TfArray<1, int> outputs11 = { 1, { 55 } };
const TfLiteConvParams opdata12 = { kTfLitePaddingSame, 1,1, kTfLiteActRelu6, 1,1 };
const TfArray<3, int> inputs12 = { 3, { 55,25,24 } };
const TfArray<1, int> outputs12 = { 1, { 56 } };
const TfArray<2, int> inputs13 = { 2, { 56,1 } };
const TfArray<1, int> outputs13 = { 1, { 57 } };
const TfLiteDepthwiseConvParams opdata14 = { kTfLitePaddingValid, 2,2, 1, kTfLiteActRelu6, 1,1 };
const TfArray<3, int> inputs14 = { 3, { 57,23,22 } };
const TfArray<1, int> outputs14 = { 1, { 58 } };
const TfLiteConvParams opdata15 = { kTfLitePaddingSame, 1,1, kTfLiteActNone, 1,1 };
const TfArray<3, int> inputs15 = { 3, { 58,21,20 } };
const TfArray<1, int> outputs15 = { 1, { 59 } };
const TfLiteConvParams opdata16 = { kTfLitePaddingSame, 1,1, kTfLiteActRelu6, 1,1 };
const TfArray<3, int> inputs16 = { 3, { 59,19,18 } };
const TfArray<1, int> outputs16 = { 1, { 60 } };
const TfLiteDepthwiseConvParams opdata17 = { kTfLitePaddingSame, 1,1, 1, kTfLiteActRelu6, 1,1 };
const TfArray<3, int> inputs17 = { 3, { 60,17,16 } };
const TfArray<1, int> outputs17 = { 1, { 61 } };
const TfLiteConvParams opdata18 = { kTfLitePaddingSame, 1,1, kTfLiteActNone, 1,1 };
const TfArray<3, int> inputs18 = { 3, { 61,15,14 } };
const TfArray<1, int> outputs18 = { 1, { 62 } };
const TfLiteAddParams opdata19 = { kTfLiteActNone };
const TfArray<2, int> inputs19 = { 2, { 59,62 } };
const TfArray<1, int> outputs19 = { 1, { 63 } };
const TfLiteConvParams opdata20 = { kTfLitePaddingSame, 1,1, kTfLiteActRelu6, 1,1 };
const TfArray<3, int> inputs20 = { 3, { 63,13,12 } };
const TfArray<1, int> outputs20 = { 1, { 64 } };
const TfLiteDepthwiseConvParams opdata21 = { kTfLitePaddingSame, 1,1, 1, kTfLiteActRelu6, 1,1 };
const TfArray<3, int> inputs21 = { 3, { 64,11,10 } };
const TfArray<1, int> outputs21 = { 1, { 65 } };
const TfLiteConvParams opdata22 = { kTfLitePaddingSame, 1,1, kTfLiteActNone, 1,1 };
const TfArray<3, int> inputs22 = { 3, { 65,9,8 } };
const TfArray<1, int> outputs22 = { 1, { 66 } };
const TfLiteAddParams opdata23 = { kTfLiteActNone };
const TfArray<2, int> inputs23 = { 2, { 63,66 } };
const TfArray<1, int> outputs23 = { 1, { 67 } };
const TfLiteConvParams opdata24 = { kTfLitePaddingSame, 1,1, kTfLiteActRelu6, 1,1 };
const TfArray<3, int> inputs24 = { 3, { 67,7,6 } };
const TfArray<1, int> outputs24 = { 1, { 68 } };
const TfLiteConvParams opdata25 = { kTfLitePaddingValid, 1,1, kTfLiteActRelu, 1,1 };
const TfArray<3, int> inputs25 = { 3, { 68,5,4 } };
const TfArray<1, int> outputs25 = { 1, { 69 } };
const TfLiteConvParams opdata26 = { kTfLitePaddingValid, 1,1, kTfLiteActNone, 1,1 };
const TfArray<3, int> inputs26 = { 3, { 69,3,2 } };
const TfArray<1, int> outputs26 = { 1, { 70 } };
const TfLiteSoftmaxParams opdata27 = { 1 };
const TfArray<1, int> inputs27 = { 1, { 70 } };
const TfArray<1, int> outputs27 = { 1, { 71 } };
};

TensorInfo_t tensorData[] = {
{ kTfLiteArenaRw, kTfLiteInt8, (int32_t*)(tensor_arena + 0), (TfLiteIntArray*)&g0::tensor_dimension0, 25600, {kTfLiteAffineQuantization, const_cast<void*>(static_cast<const void*>(&g0::quant0))}, },
{ kTfLiteMmapRo, kTfLiteInt32, (int32_t*)g0::tensor_data1, (TfLiteIntArray*)&g0::tensor_dimension1, 32, {kTfLiteNoQuantization, nullptr}, },
{ kTfLiteMmapRo, kTfLiteInt32, (int32_t*)g0::tensor_data2, (TfLiteIntArray*)&g0::tensor_dimension2, 12, {kTfLiteAffineQuantization, const_cast<void*>(static_cast<const void*>(&g0::quant2))}, },
{ kTfLiteMmapRo, kTfLiteInt8, (int32_t*)g0::tensor_data3, (TfLiteIntArray*)&g0::tensor_dimension3, 96, {kTfLiteAffineQuantization, const_cast<void*>(static_cast<const void*>(&g0::quant3))}, },
{ kTfLiteMmapRo, kTfLiteInt32, (int32_t*)g0::tensor_data4, (TfLiteIntArray*)&g0::tensor_dimension4, 128, {kTfLiteAffineQuantization, const_cast<void*>(static_cast<const void*>(&g0::quant4))}, },
{ kTfLiteMmapRo, kTfLiteInt8, (int32_t*)g0::tensor_data5, (TfLiteIntArray*)&g0::tensor_dimension5, 1536, {kTfLiteAffineQuantization, const_cast<void*>(static_cast<const void*>(&g0::quant5))}, },
{ kTfLiteMmapRo, kTfLiteInt32, (int32_t*)g0::tensor_data6, (TfLiteIntArray*)&g0::tensor_dimension6, 192, {kTfLiteAffineQuantization, const_cast<void*>(static_cast<const void*>(&g0::quant6))}, },
{ kTfLiteMmapRo, kTfLiteInt8, (int32_t*)g0::tensor_data7, (TfLiteIntArray*)&g0::tensor_dimension7, 384, {kTfLiteAffineQuantization, const_cast<void*>(static_cast<const void*>(&g0::quant7))}, },
{ kTfLiteMmapRo, kTfLiteInt32, (int32_t*)g0::tensor_data8, (TfLiteIntArray*)&g0::tensor_dimension8, 32, {kTfLiteAffineQuantization, const_cast<void*>(static_cast<const void*>(&g0::quant8))}, },
{ kTfLiteMmapRo, kTfLiteInt8, (int32_t*)g0::tensor_data9, (TfLiteIntArray*)&g0::tensor_dimension9, 384, {kTfLiteAffineQuantization, const_cast<void*>(static_cast<const void*>(&g0::quant9))}, },
{ kTfLiteMmapRo, kTfLiteInt32, (int32_t*)g0::tensor_data10, (TfLiteIntArray*)&g0::tensor_dimension6, 192, {kTfLiteAffineQuantization, const_cast<void*>(static_cast<const void*>(&g0::quant10))}, },
{ kTfLiteMmapRo, kTfLiteInt8, (int32_t*)g0::tensor_data11, (TfLiteIntArray*)&g0::tensor_dimension11, 432, {kTfLiteAffineQuantization, const_cast<void*>(static_cast<const void*>(&g0::quant11))}, },
